tree
version=v4
num_class=1
num_tree_per_iteration=1
label_index=0
max_feature_idx=34
objective=binary sigmoid:1
feature_names=amount log_amount hour_of_day day_of_week time_since_prev_tx amount_delta_prev_tx tx_count_1h tx_amount_mean_1h tx_count_24h tx_amount_mean_24h tx_count_7d tx_amount_mean_7d out_degree in_degree total_degree pagerank ego_tx_count ego_amount_sum ego_amount_mean n2v_0 n2v_1 n2v_2 n2v_3 n2v_4 n2v_5 n2v_6 n2v_7 n2v_8 n2v_9 n2v_10 n2v_11 n2v_12 n2v_13 n2v_14 n2v_15
feature_infos=[9.9999999999999995e-07:22400667433.34] [9.9999950000033335e-07:23.832356591539401] [0:23] [0:6] [0:775680] [-29843995242.34:22400667089.509998] [1:2829] [0.00020000000000000001:21982551082.453335] [1:26359] [1.4e-05:75250359160.283997] [1:119979] [1.4e-05:26403637040.499298] [1:14230] [0:545] [1:14775] [3.4972412745911237e-07:0.00016115911326599659] [1:161232] [9.7999999999999997e-05:1505695806512.1599] [1.4e-05:102681752956.63998] [-6.1614274978637695:3.5923981666564941] [-7.236839771270752:2.6272726058959961] [-2.5806591510772705:6.6061100959777832] [-4.4034738540649414:5.9389247894287109] [-2.717315673828125:6.7976818084716797] [-6.2704119682312012:3.6551532745361328] [-2.6438446044921875:6.6109671592712402] [-4.498633861541748:5.8296399116516113] [-7.2915205955505371:3.1808772087097168] [-7.7553696632385254:3.4108173847198486] [-5.7302813529968262:4.400658130645752] [-6.2568783760070801:3.3391265869140625] [-6.0989713668823242:2.8522500991821289] [-9.5471010208129883:1.8091719150543213] [-5.9691486358642578:5.1744627952575684] [-4.5470180511474609:4.9427757263183594]
tree_sizes=5143 5201 5188 5226 5202 5242 5227 5221 5235 5147 5275 5185 5238 5180 5220 5186 5263 5243 5149 5201 5271 5235 5255 5273 5229 5245 5249 5274 5243 5282 5253 5204 5243 5263 5285 5273 5268 5246 5271 5299 5250 5275 5267 5225 5256 5298 5269 5281 5282 5258 5206 5337 5245 5212 5197 5261 5316 5264 5245 5290 5219 5196 5241 5283 5204 5258 5262 5307 5238 5216 5274 5304 5299 5224 5197 5299 5261 5268 5370 5245 5279 5207 5258 5337 5299 5272 5251 5208 5255 5278 5254 5321 5321 5307 5266 5192 5228 5266 5290 5272 5222 5258 5225 5319 5272 5263 5256 5287 5263 5251 5273 5219 5331 5228 5183 5221 5283 5283 5277 5222 5277 5278 5250 5164 5208 5175 5218 5330 5300 5253 5239 5159 5320 5266 5267 5188 5338 5241 5162 5377 5232 5238 5268 5153 5221 5235 5201 5295 5279 5289 5225 5230 5262 5215 5203 5262 5150 5282 5160 5198 5125 5109 5216 5132 5261 4992 5227 5069 5232 5144 5225 5189 5305 5098 5025 5227 5260 5183 5140 5194 5250 5171 5266 5254 5158 5293 5169 5291 5220 5109 5131 5252 5280 5199 5177 5094 5320 5257 5310 5222 5222 5135 5263 5182 5258 5111 5248 5170 5232 5192 5242 5267 5290 5305 5279 5110 5223 5245 5187 5225 5227 5045 5270 5297 5267 5189 5315 5176 5276 5203 5198 5261 5169 5174 5142 5101 5192 5146 5253 5021 5060 5187 5141 5015 5132 5091 5172 5231 5252 5083 5210 5097 5133 5194 5093 5213 5127 5150 5231 5223 5061 5127 5104 5051 5266 5193 5211 5001 5252 5075 5195 5095 5283 5209 5200 5194 5081 5033 5038 5189 5111 5114 5176 5167 5063 5249 4894 5175 5262 5239 5067 5050 4982 5183 4904 5214 4959 5017 5094 5082

Tree=0
num_leaves=47
num_cat=0
split_feature=6 1 10 3 1 1 15 3 18 5 1 15 13 5 11 15 5 11 1 5 8 3 1 18 15 10 13 10 13 3 10 3 11 23 3 2 10 3 10 8 5 10 1 13 11 15
split_gain=2287.25 2650.1 3593.91 9316.04 5062.04 5250.11 5474.75 4553.71 4155.07 2587.93 1499.21 738.219 613.342 572.162 4558.64 1525.88 638.438 2860.43 623.031 940.213 431.922 1457.88 845.204 351.392 276.368 271.337 798.53 270.531 930.264 272.615 280.35 245.858 221.633 164.088 141.058 124.71 106.85 106.129 100.978 353.447 100.717 107.319 99.9434 92.1397 76.6959 64.695
threshold=12.500000000000002 7.1269550638302732 3.5000000000000004 2.5000000000000004 8.5432789794164972 9.9056611876401153 7.4708833777153548e-07 4.5000000000000009 51112.815653089892 -105242.99499999998 8.5814497977562691 6.6118189162274717e-07 1.5000000000000002 -239.74499999999998 500.35166666666674 1.9455064156994552e-06 63.045000000000002 91.846838235294129 8.4693644141286608 13259.115000000003 1.0000000180025095e-35 3.5000000000000004 8.5053270665684018 183869.14305124225 3.4973040571648837e-07 18.500000000000004 6.5000000000000009 17.500000000000004 5.5000000000000009 4.5000000000000009 6.5000000000000009 4.5000000000000009 16180.126819923375 0.61534249782562267 2.5000000000000004 10.500000000000002 1.5000000000000002 3.5000000000000004 3.5000000000000004 2.5000000000000004 -835.1049999999999 2.5000000000000004 7.4823750839545324 3.5000000000000004 91.846838235294129 3.5821018093211274e-07
decision_type=8 2 8 2 2 2 2 2 2 10 2 2 2 8 10 2 10 10 2 10 10 2 2 2 2 10 2 10 2 2 8 2 10 2 2 2 10 2 8 8 8 10 2 2 10 2
left_child=-1 23 3 4 8 6 -6 20 42 -9 32 -7 -12 14 15 35 -15 18 -18 -20 21 22 -5 -2 -23 26 31 28 29 34 -31 -19 44 -21 -16 -4 -26 45 39 -25 41 -39 -3 -27 -11 -22
right_child=1 2 13 7 5 11 -8 9 -10 10 12 -13 -14 16 27 -17 17 25 19 33 37 24 -24 38 36 43 -28 -29 -30 30 -32 -33 -34 -35 -36 -37 -38 40 -40 -41 -42 -43 -44 -45 -46 -47
leaf_value=-7.1093373238178641 -7.1044412490417725 -6.6441537830877886 -6.7692386431454867 -6.7549496392848294 -5.9699094210884738 -6.6769746548168865 -3.1634236198043286 -5.2454064392562616 -5.0667450453928087 -6.7532739467593581 -6.5811369976857943 -5.8612496062869379 -5.8276758543736564 -7.0994597835385829 -6.9650705520204932 -5.3058176956576464 -6.7980879863931296 -7.0448665371339638 -5.5904224153621556 -6.868066761464128 -6.9929135191295346 -7.1093639012304246 -5.7301046348315534 -7.0674000021853178 -6.8552879734368535 -7.0888589984149677 -6.4566246830056571 -7.0566001686521256 -6.4225707265329586 -6.4990713436461132 -6.9394925568997099 -6.9266349682490542 -6.5106990525742212 -6.3437672180659197 -7.0585777335307025 -6.2733044761570724 -7.0012666500266896 -6.7656467399589459 -7.0683947433784988 -6.6347818336116999 -7.0404683632933951 -7.0646551997538154 -6.9279352240891745 -7.0570114073791865 -7.0314439019427404 -7.0825204649971321
leaf_weight=1723.5232671629637 931.00866922084242 1.5296874968335057 1.3195333853363984 1.9215286290273064 1.2676228079944842 2.2497374406084418 1.2341321129351852 1.3873520428314794 1.2374811824411143 1.260924668982623 2.0094417035579681 2.0002317624166608 2.2899262746796012 314.47678933944553 21.091602480970323 1.5472701117396352 3.2084085866808882 138.23200658988208 1.3940501818433402 1.2542265299707653 7.6827654466032973 12.094327253289519 1.2383184498175976 8.0243705362081492 8.8097273353487271 134.03645976632833 2.119123729877173 143.08899464085698 2.4389598676934829 1.6452303947880835 7.343672159127892 17.370786259882152 1.2391557171940801 1.4652179088443515 45.478689355775714 1.2374811824411152 11.141516978852449 2.9086668659001589 218.34007463697344 2.1124255908653149 15.142817771062257 2.115774660371244 8.151635177433489 180.24105993751436 4.4869158705696464 81.183119358494878
leaf_count=2058510 1111961 1827 1576 2295 1514 2687 1474 1657 1478 1506 2400 2389 2735 375599 25191 1848 3832 165099 1665 1498 9176 14445 1479 9584 10522 160088 2531 170900 2913 1965 8771 20747 1480 1750 54318 1478 13307 3474 260777 2523 18086 2527 9736 215273 5359 96962
internal_value=-7.08369 -7.06491 -7.03425 -6.91135 -6.27314 -5.63982 -4.56665 -6.98351 -6.66892 -6.45067 -6.6029 -6.28244 -6.16933 -7.05535 -7.01406 -6.04597 -7.06711 -7.0458 -6.4708 -6.22641 -7.03064 -6.94115 -6.339 -7.09643 -7.00193 -7.05482 -7.02338 -7.03224 -6.9881 -7.00695 -6.85391 -7.03138 -6.87612 -6.56915 -7.02829 -6.51171 -6.93458 -7.05994 -7.06396 -6.97285 -6.99897 -6.88274 -6.87849 -7.07073 -6.96268 -7.07428
internal_weight=4076.58 2353.06 1193.57 174.583 17.6705 6.75172 2.50175 156.912 10.9188 12.6737 11.2864 4.24997 4.29937 1018.99 225.191 4.10428 793.798 479.321 7.3219 4.11349 144.239 35.2054 3.15985 1159.49 32.0456 471.999 157.722 221.087 77.9982 75.5592 8.9889 155.603 6.987 2.71944 66.5703 2.55701 19.9512 109.033 228.477 10.1368 20.1673 5.02444 9.68132 314.278 5.74784 88.8659
internal_count=4868912 2810402 1425557 208515 21105 8064 2988 187410 13041 15137 13480 5076 5135 1217042 268960 4902 948082 572483 8745 4913 172273 42048 3774 1384845 38274 563738 188377 264058 93158 90245 10736 185846 8345 3248 79509 3054 23829 130225 272884 12107 24087 6001 11563 375361 6865 106138
is_linear=0
shrinkage=1


Tree=1
num_leaves=47
num_cat=0
split_feature=4 16 16 12 12 16 12 0 11 4 5 5 6 12 0 0 0 13 11 5 6 0 5 15 16 12 5 5 13 16 11 5 17 13 15 11 17 12 16 16 4 12 16 13 0 13
split_gain=6587.04 34756.9 6036.23 25664.9 5507.41 3809.23 2091.88 2102.57 1937.61 1521.73 1157.11 1082.56 841.382 4334.28 804.62 803.628 1060.76 965.055 601.519 520.842 327.305 324.703 217.647 178.874 173.329 549.432 305.276 222.178 275.168 209.465 173.217 161.47 119.451 118.629 103.985 103.194 102.515 99.945 352.064 94.7176 121.235 92.1706 341.912 87.378 76.3184 96.767
threshold=1.0000000180025095e-35 8.5000000000000018 28.500000000000004 7.5000000000000009 2.5000000000000004 3.5000000000000004 2.5000000000000004 2768.5250000000001 49054.471182266025 146970.00000000003 20.645 -120354.59499999999 1.0000000180025095e-35 14.500000000000002 4940.0200000000013 6172.9850000000006 19097.755000000001 3.5000000000000004 16180.126819923375 364.39000000000004 8.5000000000000018 1405.7050000000002 -0.021516499999999997 2.0403528832000728e-06 24.500000000000004 9.5000000000000018 -277.53499999999991 32.82500000000001 5.5000000000000009 13.500000000000002 701600.64144927543 2607.4900000000002 10013641.000000002 5.5000000000000009 3.5093687712139389e-07 39.991496873508467 125357.40500000001 7.5000000000000009 70.500000000000014 13.500000000000002 296820.00000000006 14.500000000000002 62.500000000000007 10.500000000000002 3792.9450000000002 2.5000000000000004
decision_type=8 2 2 2 2 2 2 2 8 10 8 10 10 2 2 2 2 2 8 10 8 2 10 2 2 2 8 10 2 2 10 8 2 2 2 10 2 2 2 2 10 2 2 2 2 2
left_child=1 4 3 6 5 -1 -3 -8 -9 20 -7 14 13 15 23 -4 17 31 -18 22 -2 43 39 -11 25 26 29 -28 -29 36 34 -17 -16 -31 -21 44 -23 -14 -39 40 -13 -26 -43 -22 45 -36
right_child=9 2 12 -5 -6 10 7 8 -10 11 -12 19 37 -15 32 16 18 -19 -20 30 21 24 -24 -25 41 -27 27 28 -30 33 -32 -33 -34 -35 35 -37 -38 38 -40 -41 -42 42 -44 -45 -46 -47
leaf_value=2.11676259843474 -0.027486201797563888 -0.012656982802843587 0.0099244474138544744 4.0818086664605397 2.8298694402185234 0.46897664499553643 0.099789576795582313 1.6156471636200005 0.45451239420463191 0.25822507449893545 1.3654237541242551 0.17244069535484283 -0.021876163867154082 1.5470221901572212 0.060304576748301128 0.4818850254951797 0.68096953717762421 1.2207775846814501 0.015284407527781424 0.1756722144122049 -0.023762320160662868 0.059684998271896571 -0.023993935354115099 0.51919241453293707 -0.013734534037733359 0.44500239403885988 -0.012826840811604097 0.026997581962637313 0.27156061176394064 0.016230043801355436 0.27441794811151177 0.043916105912728612 0.22444115457358008 0.28178427701997133 0.13405587479169442 0.044074066695467227 0.19889510062484558 0.49498924539473776 0.022173355711053673 -0.013276403526951409 0.043649039294293722 0.48588103838929625 0.011767205839045695 0.017791498902430092 0.079697736335870378 0.43796985745778244
leaf_weight=3.2954103880911116 1615.6268060118891 11.435882891819352 33.960801916895434 1.6203281993512053 2.8218268859200171 3.3187558574136355 4.6498942690086533 2.2877642720122822 2.9962997936527245 4.8368928442359884 2.2145528952823943 8.6306735861580801 45.258553762512747 1.8297655546339218 16.068841698637701 2.3199797754059572 1.3393887094571226 1.5809493355918673 10.174807383038569 9.6454616520204564 887.2640098099364 8.3824446168728191 99.931266390602104 6.5946933732484467 448.17956829298055 2.5620607198798089 233.41267285472713 122.44972193002468 4.1365601762081488 31.832039141620044 4.5769514776184215 1.3964471567305738 5.5895769278868093 1.5523006596486073 4.0330385372508308 45.459899507754017 13.796927024028262 1.3677865031640966 270.54420518915867 13.698978625528978 29.308896735310555 1.3351070822682221 78.786567870352883 44.460315678850748 10.317127308109773 1.5347993387840686
leaf_count=1328 1979688 12949 40278 1522 1385 2414 5503 2444 2919 1861 1258 6282 55457 1712 3437 2522 1532 1664 11277 7762 1076244 7891 110441 1804 521433 2736 279152 135326 3929 35102 2683 1474 2262 1105 3929 25867 12424 1676 317068 15661 13609 1558 91928 52626 4309 1481
internal_value=-0.000584647 0.11177 0.0648623 0.525706 1.68915 1.31924 0.253801 0.564957 0.965829 -0.0127002 0.835943 0.0556198 0.0360889 0.144747 0.21245 0.0933078 0.25911 0.603869 0.0966157 0.0325769 -0.0178015 -0.00944703 0.000950061 0.412673 0.00260046 0.0167322 0.0139843 0.00398764 0.0353407 0.0779565 0.0954274 0.329263 0.104714 0.02991 0.0832609 0.0680078 0.148279 0.0179284 0.0247162 0.0500767 0.0741156 -0.00850052 0.0202257 -0.021732 0.133713 0.225835
internal_weight=4158.42 404.413 392.763 22.9902 11.6505 8.82872 21.3698 9.93396 5.28406 3754 5.53331 260.227 369.773 52.6021 33.09 50.7724 16.8116 5.29738 11.5142 227.137 3493.78 1878.15 151.57 11.4316 946.426 418.125 415.563 359.999 126.586 55.5637 75.5673 3.71643 21.6584 33.3843 70.9903 61.3449 22.1794 317.171 271.912 51.6385 37.9396 528.301 80.1217 931.724 15.885 5.56784
internal_count=4868912 466382 459997 25337 6385 5000 23815 10866 5363 4402530 3672 201388 434660 60459 9364 58747 18469 5660 12809 192024 4201142 2221454 145993 3665 1092584 477665 474929 418407 139255 56522 46031 3996 5699 36207 43348 35586 20315 374201 318744 35552 19891 614919 93486 1128870 9719 5410
is_linear=0
shrinkage=0.0293034


Tree=2
num_leaves=47
num_cat=0
split_feature=4 16 2 4 6 0 14 15 5 3 5 12 0 2 16 10 6 0 5 3 16 10 0 16 14 11 15 11 11 16 14 16 14 16 6 16 4 4 16 0 5 14 15 3 14 15
split_gain=3950.48 3599.4 1501.75 1389.02 1065.77 2146.81 1051.26 960.334 729.792 562.763 430.297 377.102 338.192 334.595 358.771 582.768 325.693 314.486 199.148 170.734 480.603 130.55 119.308 120.809 584.137 264.507 114.587 107.969 99.1079 118.34 94.3674 314.552 85.7853 197.795 83.7422 80.6105 80.8804 73.2324 103.696 115.897 140.206 73.0649 66.8815 80.6229 72.8293 65.3323
threshold=1.0000000180025095e-35 5.5000000000000009 4.5000000000000009 146970.00000000003 1609.0000000000002 1362.5900000000001 13.500000000000002 1.2872054026597729e-06 -120354.59499999999 4.5000000000000009 364.39000000000004 5.5000000000000009 2950.7250000000004 5.5000000000000009 22.500000000000004 3.5000000000000004 8.5000000000000018 1362.5900000000001 -0.021516499999999997 4.5000000000000009 8.5000000000000018 17.500000000000004 72220.480000000025 24.500000000000004 15.500000000000002 23523.51071428572 3.6975926375919594e-06 2379806.2190441182 512004.95360294118 4.5000000000000009 11.500000000000002 57.500000000000007 16.500000000000004 82.500000000000014 803.50000000000011 14.500000000000002 329010.00000000006 1770.0000000000002 24.500000000000004 3243.7750000000005 30231.445000000007 17.500000000000004 7.2890719784890667e-07 2.5000000000000004 6.5000000000000009 5.4594273013468822e-07
decision_type=8 2 2 10 8 2 2 2 10 2 10 2 2 2 2 10 8 2 10 2 2 10 2 2 2 10 2 8 10 2 2 2 2 2 8 2 10 10 2 2 8 2 2 2 2 2
left_child=1 2 -1 16 30 41 9 -8 12 13 18 -11 -5 -7 15 -15 37 34 35 22 27 -16 23 24 25 -19 -14 -21 42 -30 -3 -32 -25 -34 -18 36 -10 -2 39 -39 -41 -6 -12 -44 -45 -33
right_child=3 4 -4 8 5 6 7 -9 10 11 28 -13 26 14 21 -17 17 19 -20 20 -22 -23 -24 32 -26 -27 -28 -29 29 -31 31 45 33 -35 -36 -37 -38 38 -40 40 -42 -43 43 44 -46 -47
leaf_value=0.089893007558628293 -0.0286593854556258 -0.013887237196535673 0.44150666161985452 0.3220833143040695 -0.014549352829606328 0.028470204511994564 0.62925305367194562 0.20867025472569792 0.12976353311919342 0.60139680782021443 0.10202919745927803 0.15424391787495753 0.083856908958954451 0.12706047928720576 0.039396017973574705 0.4555550050622042 0.019024537294662577 0.0018886463965914375 -0.023860529926341634 0.18561258653591473 0.02206662906972915 0.16831453455728762 -0.01917277825617408 -0.012467561429142186 0.57358264742967946 0.072433158024877306 0.22329923350717718 0.47831332745349842 0.31180192850850219 0.048110512437151844 0.27644637714733222 0.14815346069719956 0.27664919412273509 0.014042062009009947 -0.0236125573284304 -0.014697015060601865 0.037028808485638172 0 -0.0090221009986331657 0.4372696580625357 0 0.12584120344983613 0.013697463565301923 0.063801827621309815 0.25396161621731361 0.019501696137743815
leaf_weight=16.522737620165572 1515.4442849562038 63.224601350317243 30.021290835109539 9.374560459633356 74.59424720169045 23.088669482502155 8.41011180507485 11.489260879985521 12.593615967663935 3.8295352863497092 38.024043913464993 3.3762789090396836 24.617121828254316 11.936719764489682 16.286280405707661 8.1742254400742222 40.295975159213413 234.04151095828274 97.580079004867002 4.0186837516957885 73.255205840570852 13.112625068810301 235.17882409435697 298.07290712604299 1.6259895004914131 57.128786226501688 7.2295509411487719 2.1053123786114156 3.6445180534501551 3.2037154663121328 4.2478642690111874 3.5476272102096109 2.6317246552789575 48.978918860550039 864.09975064144237 13.027002355316652 28.6941347111715 3.8342782446416086 49.801152574480511 1.5999318001559002 1.2140425421530383 3.2831942663760847 26.386973049258813 9.2752594024059345 2.5321654649451366 270.94065462250728
leaf_count=1808 1908594 64915 2416 2437 40341 8864 1738 2241 7814 2366 27084 818 5978 1648 8079 3173 46858 269702 110441 2240 79423 11583 276011 352852 1266 58734 949 2048 832 2307 848 4219 2560 56426 1073334 15103 12635 4829 62721 2015 1529 1217 8347 5832 1629 310108
internal_value=-0.00148968 0.0706028 0.317641 -0.0125032 0.0483858 0.106677 0.196741 0.388667 0.0506781 0.148325 0.030495 0.39807 0.164646 0.122922 0.166076 0.262794 -0.0175985 -0.00926884 0.000874995 0.00239835 0.0435691 0.0984035 -0.00127504 0.00520767 0.0191319 0.0158817 0.116906 0.293519 0.0841253 0.19492 0.0179855 0.0253735 -0.006325 0.0282945 -0.021664 0.0461268 0.0663874 -0.0274343 0.00467104 0.113871 0.256865 -0.00806179 0.0735881 0.0441152 0.108344 0.021326
internal_weight=4275.6 566.086 46.544 3709.51 519.542 177.581 99.7037 19.8994 276.183 79.8043 234.962 7.20581 41.2212 72.5985 49.5099 20.1109 3433.33 1861.43 151.895 957.038 79.3792 29.3989 877.659 642.48 292.796 291.17 31.8467 6.124 83.0667 6.84823 341.961 278.736 349.684 51.6106 904.396 54.3148 41.2878 1571.89 56.4494 6.64825 2.81397 77.8774 76.2184 38.1944 11.8074 274.488
internal_count=4868912 466382 4224 4402530 462158 82068 40510 3979 201388 36531 192024 3184 9364 33347 24483 4821 4201142 2221454 145993 1101262 83711 19662 1017551 741540 329702 328436 6927 4288 46031 3139 380090 315175 411838 58986 1120192 35552 20449 1979688 71094 8373 3544 41558 42892 15808 7461 314327
is_linear=0
shrinkage=0.0293034


Tree=3
num_leaves=47
num_cat=0
split_feature=8 10 14 13 7 12 18 7 5 3 3 12 27 22 10 18 15 20 14 8 12 12 5 13 21 8 12 12 5 3 12 3 13 15 3 15 5 14 18 5 5 32 17 3 12 11
split_gain=1254.03 1655.35 1040.38 829.405 800.242 1555.16 669.002 492.557 351.639 766.757 376.798 350.149 348.569 898.994 270.61 384.565 226.082 493.81 153.121 192.314 175.49 150.775 146.434 163.646 417.011 135.311 133.897 132.753 118.494 112.662 106.123 202.09 116.914 96.5011 93.444 112.305 84.9755 81.3344 93.0337 78.1428 183.868 68.2176 65.7919 73.6838 62.1043 59.6181
threshold=225.50000000000003 4.5000000000000009 16.500000000000004 2.5000000000000004 1.0000000180025095e-35 15.500000000000002 82090.000176015485 1.0000000180025095e-35 inf 2.5000000000000004 4.5000000000000009 1.5000000000000002 1.463513255119324 0.039429379627108581 5.5000000000000009 5314.2613888888891 4.9132132938686275e-07 -0.98939603567123402 19.500000000000004 20.500000000000004 16.500000000000004 3.5000000000000004 1012.1700000000001 5.5000000000000009 1.8891669511795046 13.500000000000002 1.5000000000000002 5.5000000000000009 -782.57500000000005 4.5000000000000009 5.5000000000000009 4.5000000000000009 2.5000000000000004 1.9645819806073689e-06 3.5000000000000004 9.3211693575051519e-07 197.84500000000023 15.500000000000002 496206.85987132357 526.33000000000015 -681.9649999999998 0.32088187336921697 2102425.5600000005 4.5000000000000009 2.5000000000000004 24386.680500000006
decision_type=8 8 2 2 10 2 2 10 8 2 2 2 2 2 10 2 2 2 2 8 2 2 10 2 2 10 2 2 10 2 2 2 2 2 2 2 10 2 2 10 10 2 2 2 2 10
left_child=2 6 7 16 5 25 11 12 14 -10 -11 -2 22 -14 15 36 17 -4 -6 20 -20 -16 28 42 -25 -5 -17 39 37 45 31 34 -33 -31 35 -13 -3 -1 -39 40 -28 -18 43 -24 -36 -8
right_child=1 8 3 4 18 -7 29 -9 9 10 -12 30 13 -15 21 26 41 -19 19 -21 -22 -23 23 24 -26 -27 27 -29 -30 33 -32 32 -34 -35 44 -37 -38 38 -40 -41 -42 -43 -44 -45 -46 -47
leaf_value=0.00014246167367763568 -0.025755872842491853 -0.014838682068249022 0.55918986912754132 0.26001308230841291 -0.0032634749602185468 0.97822644816585602 0.21606820701328697 -0.02674034865761778 0.48431186011299876 -0.022989583738728881 0.31345745554280208 0.12944155456784168 0.90473304548866584 0 -0.017075490413659491 -0.017712018407342264 -0.020512871090734384 0.0063802749764792655 0.13665509812043475 0.011806475599450575 0.56899350325024312 0.017514749192743373 0.013337760833894562 0.021421737778280044 0.43845890320735575 0.051758738120628679 0.14672392431825571 0.00061907459810384635 -0.020058215339914566 0.15068954499326248 -0.0022789471416107174 0.11808120090234739 0.27691962789552799 0.30035914055010898 0.00078673114472108878 0.058279204351209098 0.071612907252327496 0.0047009439847789736 0.24811195304653053 0.19144943048375559 -0.0092601916441868853 0.16441131228941178 -0.0069716674692506296 0.077433219358559235 0.080933611860768556 0.12228802031778621
leaf_weight=381.9400502446224 36.197192222694866 47.147605176898651 1.9598411121987735 12.3681433214224 12.926248514268083 2.6887268470018162 8.3199192965403181 1564.9339260903071 2.5943034559604703 390.76878030673834 2.862013111007399 30.594264931220096 1.3005996952415433 3.3413063510670327 142.27140893338947 6.1376328585320143 48.145389961719047 5.3259655541041857 2.7278840589569855 4.6249138548737401 1.4433445571921764 440.5150196357863 209.54961788089713 9.5128535685362277 2.7232786000822662 4.1463564222794949 25.467624305631031 7.6722304146387605 446.38343880529283 9.6223548896377924 13.385056636587249 17.972753204521727 6.0684472330030976 8.7440976451616717 27.714697847492062 61.905011577589903 12.261889625515321 3.8649877374991766 2.4544023748021573 17.278430951642804 8.0110108610242623 1.7371868059854012 140.76260851888219 17.080277389497496 12.60517619649181 52.570877254533116
leaf_count=430230 42019 48000 820 5096 16388 2032 3587 2000309 3204 490450 2377 15653 1528 3850 164943 3083 53356 6139 2743 5510 1744 493039 227685 8672 2470 4402 6822 1155 524502 2455 9429 11716 3052 1348 29095 11189 5595 4418 1089 5791 8874 1923 161374 15058 9766 14932
internal_value=-0.00150935 0.0213541 -0.0125416 0.0811779 0.181937 0.320265 0.0842261 -0.0158599 0.0050287 -0.0170125 -0.0204302 0.0561077 -0.00185455 0.251454 0.017448 0.0568283 0.00827182 0.161209 0.0576074 0.152069 0.296955 0.00899468 -0.00285951 0.0121775 0.117879 0.210407 0.106351 0.120139 -0.00975186 0.156907 0.0737729 0.080544 0.160023 0.224365 0.0658239 0.0822951 0.00226216 0.00198365 0.106256 0.137334 0.108081 -0.0131837 0.00853648 0.0183637 0.02694 0.135831
internal_weight=4270.63 1388.69 2881.94 98.094 40.9256 19.2032 285.7 2783.85 1102.99 396.225 393.631 206.443 1218.91 4.64191 706.763 123.976 57.1684 7.28581 21.7224 8.79614 4.17123 582.786 1214.27 379.629 12.2361 16.5145 64.5669 58.4293 834.643 79.2572 170.245 156.86 24.0412 18.3665 132.819 92.4993 59.4095 388.259 6.31939 50.7571 33.4786 49.8826 367.393 226.63 40.3199 60.8908
internal_count=4868912 1387574 3481338 100153 37915 11530 154241 3381185 1233333 496031 492827 131919 1380876 5378 737302 79320 62238 6959 26385 9997 4487 657982 1375498 415259 11142 9498 25725 22642 960239 22322 89900 80471 14768 3803 65703 26842 53595 435737 5507 21487 15696 55279 404117 242743 38861 18519
is_linear=0
shrinkage=0.0293034


Tree=4
num_leaves=47
num_cat=0
split_feature=6 0 16 12 2 12 11 27 28 16 13 12 16 12 13 18 12 3 13 13 26 0 3 3 11 12 16 19 16 12 16 13 16 15 19 16 3 3 11 11 0 20 12 0 18 13
split_gain=1637.47 1516.65 1003.37 1297.17 636.529 512.04 379.101 344.798 500.118 308.086 293.384 279.223 1055.23 819.707 549.827 240.956 174.26 169.986 166.497 162.035 709.08 122.738 119.124 111.491 300.762 105.172 334.154 392.772 80.1004 74.3474 660.217 73.3864 534.169 122.851 69.5871 65.1633 401.533 350.339 176.275 56.3022 52.0512 103.205 50.5163 93.6127 182.51 45.2385
threshold=12.500000000000002 1098.1650000000002 14.500000000000002 1.5000000000000002 1.0000000180025095e-35 4.5000000000000009 2475.1430357142858 1.463513255119324 -1.0589568018913267 7.5000000000000009 8.5000000000000018 10.500000000000002 57.500000000000007 14.500000000000002 2.5000000000000004 183869.14305124225 2.5000000000000004 4.5000000000000009 1.5000000000000002 5.5000000000000009 -1.2772639989852903 5131.1450000000013 2.5000000000000004 2.5000000000000004 39.991496873508467 2.5000000000000004 21.500000000000004 -2.273496031761169 27.500000000000004 14.500000000000002 57.500000000000007 2.5000000000000004 95.500000000000014 1.3360520279440578e-06 -2.3358024358749385 8.5000000000000018 4.5000000000000009 2.5000000000000004 37528.199851351361 65546.023371428586 460.38000000000005 -0.51384058594703663 1.5000000000000002 239.14500000000001 53413.738240913335 2.5000000000000004
decision_type=8 2 2 2 2 2 10 2 2 2 2 2 2 2 2 2 2 2 2 2 2 2 2 2 10 2 2 2 2 2 2 2 2 2 2 2 2 2 10 10 2 2 2 2 2 2
left_child=29 10 3 17 39 9 -7 11 -9 15 35 19 13 14 28 18 -11 23 -6 25 -21 -17 -18 24 -3 -4 27 -27 -13 -1 -31 -14 -33 -34 -22 36 37 38 40 -5 41 -2 -39 -44 -45 -32
right_child=1 2 7 4 5 6 -8 8 -10 16 -12 12 31 -15 -16 21 22 -19 -20 20 34 -23 -24 -25 -26 26 -28 -29 -30 30 45 32 33 -35 -36 -37 -38 42 -40 -41 -42 -43 43 44 -46 -47
leaf_value=-0.026322476424931626 0.31836973772790228 0.32433948923941863 -0.025512095945789112 -0.013297433759305805 0.057877006490126712 0.10583855510108989 0.47749986446768133 0.66326357489939491 0 -0.013685339731539993 0.021124078810963707 0.10112622469597879 -0.022985561654822975 0.45382327256388733 0.33350255244413468 0.21009699128122938 0.2187351586552766 0.19061215502652126 0.11249139953905377 0.60395526216159146 0.19737730903649692 0.12704120102882269 0.05454622266547738 -0.021315994746859281 -0.019555650276572328 0.43397822313752299 -0.0044313423465246237 0.051365464677158454 -0.025425668789981599 0.62936321332868594 -0.025875361673334856 0.59911298584700579 0.10543059643921183 0.013255955727917367 0.014677680846207082 -0.024895350560412741 0.27836730295723561 -0.026940507938562095 0.4619873599246575 0.093111161762742367 0 0 -0.019189884149294414 0.011128161290796152 0.24048181187830087 0.053282740956740869
leaf_weight=1532.673546492937 1.9786538732005281 3.0221722766291332 126.6778897572658 50.264295080676675 82.826383563224226 4.7771074592019414 5.4832849934464321 1.7120877867564561 2.0548034328385247 30.42468426853884 174.50181095843436 6.6813078855630073 34.549540104228072 7.9388779611326745 6.7217624798067837 24.128828756511211 5.1053888131282319 3.5278451247722833 130.3201460193377 1.9841709826723697 2.0012709744041812 60.095826431410387 20.395977073465474 144.24613194016274 7.1349183855927549 2.4333431809791355 465.90221163030947 62.851070776814595 11.164046581834553 1.4424090347019944 29.790063000749797 1.3739277784479771 13.362924402696079 223.23967093712417 27.042020057560876 686.08864052244462 4.1402237898437297 177.95520335773472 1.5787261973018756 4.6285020167706525 2.9945928767556325 1.673284023185259 50.481044583662879 16.999431319243744 3.7444643402122884 7.6227030269801608
leaf_count=2010611 1968 2246 143061 41966 48932 1609 1680 1460 1778 24400 193542 1484 35282 1245 189 4780 4723 1921 49895 1360 1562 21854 16651 175921 4050 2469 526750 60908 12648 1134 38395 1271 11475 243164 21522 826826 3203 227949 939 1845 2916 1812 59423 17985 3738 8370
internal_value=-0.00151328 0.0123334 0.0308983 0.0616996 0.0887167 0.102765 0.308794 0.0130596 0.293342 0.0966552 -0.0136692 0.0119526 0.0353003 0.193235 0.107211 0.108587 0.0324203 -0.0096048 0.0914765 0.0015504 0.0670201 0.151362 0.0891572 -0.0144668 0.0784448 -0.00147038 0.00418001 0.0663105 0.0194839 -0.0252975 0.0139972 0.0162996 0.0221887 0.018649 0.0287949 -0.0201229 -0.00743473 -0.0122045 0.175434 -0.00351879 0.100658 0.175136 -0.0185763 0.00170145 0.0546687 -0.00856552
internal_weight=4267.74 2696.21 1574.07 576.381 418.45 363.558 10.2604 997.691 3.76689 353.297 1122.14 993.924 305.032 32.506 24.5671 297.371 55.9261 157.931 213.147 688.892 31.0275 84.2247 25.5014 154.403 10.1571 657.865 531.187 65.2844 17.8454 1571.53 38.8552 272.526 237.977 236.603 29.0433 947.634 261.546 257.405 8.22526 54.8928 6.64653 3.65194 249.18 71.2249 20.7439 37.4128
internal_count=4868912 2810402 1470101 402473 218335 174524 3289 1067628 3238 171235 1340301 1064390 306758 15566 14321 125461 45774 184138 98827 757632 24444 26634 21374 182217 6296 733188 590127 63377 14132 2058510 47899 291192 255910 254639 23084 1146759 319933 316730 7635 43811 6696 3780 309095 81146 21723 46765
is_linear=0
shrinkage=0.0293034


Tree=5
num_leaves=47
num_cat=0
split_feature=4 16 4 0 6 11 5 13 14 6 16 0 17 0 27 23 8 16 0 16 14 32 11 16 14 16 34 8 13 16 29 3 0 17 32 13 4 16 11 0 5 6 14 16 3 0
split_gain=3230.73 2015.9 1031.36 724.055 1163.7 564.132 450.149 381.225 324.352 311.454 303.131 280.792 220.704 260.638 174.373 388.582 165.747 182.606 149.276 141.958 437.551 613.756 138.738 309.468 120.598 168.299 115.613 112.315 107.041 131.931 106.523 83.8391 82.6756 173.878 77.42 77.2326 75.6677 90.8973 75.2959 74.6512 85.3165 67.4377 839.649 53.8735 50.6163 47.441
threshold=1.0000000180025095e-35 5.5000000000000009 146970.00000000003 3351.3400000000006 1.0000000180025095e-35 91.846838235294129 -3280.4049999999993 3.5000000000000004 2.5000000000000004 8.5000000000000018 7.5000000000000009 1405.7050000000002 157918.12500000003 1726.6050000000002 1.463513255119324 1.0393475294113161 1.5000000000000002 70.500000000000014 18246.195000000003 24.500000000000004 9.5000000000000018 -0.60200485587120045 16180.126819923375 4.5000000000000009 16.500000000000004 57.500000000000007 0.18772836774587634 2.5000000000000004 3.5000000000000004 26.500000000000004 -0.17409193515777585 4.5000000000000009 5131.1450000000013 15899675.270000001 0.065466582775115981 10.500000000000002 1770.0000000000002 24.500000000000004 198.37841950000004 4605.9500000000007 15603.380000000003 2.5000000000000004 15.500000000000002 2.5000000000000004 1.0000000180025095e-35 1065.7350000000004
decision_type=8 2 10 2 10 10 10 2 2 8 2 2 2 2 2 2 8 2 2 2 2 2 10 2 2 2 2 10 2 2 2 2 2 2 2 2 10 2 10 2 8 10 2 2 2 2
left_child=1 6 9 28 5 -5 -1 16 -4 36 12 35 38 -14 19 -16 -7 18 -18 20 22 27 31 -24 -21 -26 30 -22 45 -30 -9 -13 -15 -34 -27 -11 -2 39 43 -38 -41 42 -6 -10 -12 -3
right_child=2 3 8 4 41 7 -8 26 10 11 44 14 13 32 15 -17 17 -19 -20 24 21 -23 23 -25 25 34 -28 -29 29 -31 -32 -33 33 -35 -36 -37 37 -39 -40 40 -42 -43 -44 -45 -46 -47
leaf_value=0.11428905412593926 -0.028602509390929242 -0.02241697796308309 -0.022949556506076298 0.0056728586473632466 0.012997283269797063 0.021556003511842291 0.27579592127918912 0.25876280929446588 0.10684945102650417 -0.023322066058309679 -0.020904119221677626 -0.007182422914319489 0.25949686193031163 0.12833746058158602 0.48183428986363042 -0.0028590163357732064 0.23343372650698868 0.027574012690663369 0.12129631927470694 -0.016001528386052323 0.014776402508535482 0.46375457051686775 0.14024811284097641 0.012274143126960818 0.26977588061941338 0.0095821432477429559 0.19448285387571346 0.24463559313638594 0.16036445776169569 0.019886626490531578 0.43970063234274492 0.064997589140744882 0.037553170539860702 0.18092249259773679 0.20487346539285795 0.014413109132451994 0.01006375724515492 -0.0079098963423451258 0.02300804754056791 0.36595017075423208 0.020193229213846392 0.011791419188509246 0.59059484865687706 0.034077889828703148 0.03619293707829923 0.022968447501313157
leaf_weight=25.396379433223046 1399.8035124003072 83.683559562196024 62.020222102990374 20.001085748604964 25.828532049257777 9.6557917655445618 40.061014393111691 9.9954705243580957 21.367880755919032 822.43739925220143 46.041215981764253 290.22705256810877 8.5633409023866971 28.086428665206768 2.0907923745689905 3.8781085020164028 24.553354212199338 8.4795146102551353 21.529544115182944 436.47809518116992 11.57366002717754 4.2460272613097905 19.584216519200709 101.0320381661295 2.2991182625410138 84.710645168379415 12.227304755710064 2.2955572382779783 6.0276379814022212 196.16404345299816 5.8212704677134779 14.438775289803742 43.999587809434161 9.0875525952433218 1.8122343334252935 47.89214717008872 4.0858124110382041 47.217206733941566 76.0237157564261 1.5922309451270846 1.4745326191186907 113.63811989716487 2.3770550431217989 18.661930113157723 18.541756732971407 25.037703929119743
leaf_count=1650 1908594 53550 79001 2233 22988 1323 2574 2571 8884 1076244 43861 338594 1946 3174 1488 2896 6265 5023 7867 518609 8092 2848 11120 102727 778 91867 3183 1301 2877 214295 2054 10590 9134 1474 1674 52626 5210 62721 27203 1359 1804 122319 884 9323 17388 14726
internal_value=-0.00151634 0.0597027 -0.0121568 0.0417706 0.0784939 0.149052 0.213812 0.179655 0.0369995 -0.0171227 0.0509145 -0.00909353 0.0683086 0.103149 0.00166703 0.159581 0.138867 0.158817 0.182007 0.000648214 0.0129007 0.154052 0.00678393 0.0334203 -0.0096098 0.0213022 0.27147 0.0560229 0.0116147 0.0242938 0.328175 -0.00361645 0.0861074 0.0629307 0.0141857 -0.0211948 -0.0272794 0.00597195 0.0409875 0.103773 0.214173 0.0223383 0.0632627 0.0740286 -0.00382731 -0.0115587
internal_weight=4262.04 630.477 3631.56 565.02 254.107 112.263 65.4574 92.2623 332.394 3299.17 270.373 1845 205.79 89.7369 974.666 5.9689 64.2182 54.5624 46.0829 968.697 443.397 18.1152 425.282 120.616 525.3 88.822 28.044 13.8692 310.913 202.192 15.8167 304.666 81.1736 53.0871 86.5229 870.33 1454.17 54.3698 116.054 7.15258 3.06676 141.844 28.2056 40.0298 64.583 108.721
internal_count=4868912 466382 4402530 462158 176710 30519 4224 28286 201388 4201142 122387 2221454 61138 15728 1092584 4384 20478 19155 14132 1088200 475272 12241 463031 113847 612928 94319 7808 9393 285448 217172 4625 349184 13782 10608 93541 1128870 1979688 71094 45410 8373 3163 146191 23872 18207 61249 68276
is_linear=0
shrinkage=0.0293034


Tree=6
num_leaves=47
num_cat=0
split_feature=6 16 5 15 13 3 3 9 16 3 16 9 32 31 5 17 5 34 13 3 5 16 29 3 16 11 5 16 5 3 17 22 5 32 16 17 16 15 11 31 5 16 9 5 3 13
split_gain=1494.37 728.146 1251.15 637.789 450.586 395.599 344.368 306.886 253.114 209.209 196.303 270.42 243.869 903.356 168.041 135.007 124.26 113.508 126.874 105.787 104.66 131.329 100.128 90.7809 90.0196 87.112 85.844 79.5442 79.1004 78.6644 71.0649 67.3865 67.3483 63.907 60.372 73.6982 53.6644 52.3963 51.104 327.166 45.7912 57.0363 45.6744 45.6307 46.8517 44.1995
threshold=12.500000000000002 8.5000000000000018 inf 3.4973040571648837e-07 3.5000000000000004 4.5000000000000009 2.5000000000000004 589982.38461649336 3.5000000000000004 4.5000000000000009 23.500000000000004 5451.9420000000018 -0.4763625562191009 -1.2662168741226194 6742.6550000000007 125357.40500000001 -1893.8899999999999 -0.77585300803184498 11.500000000000002 3.5000000000000004 953.36500000000024 35.500000000000007 -0.20021488517522809 4.5000000000000009 7.5000000000000009 28.678108711778179 -835.1049999999999 30.500000000000004 -514.47500000000002 4.5000000000000009 1247647.3850000002 -0.20399434119462964 -3481.1699999999996 -1.7587093710899351 4.5000000000000009 25007.365000000002 13.500000000000002 3.6760372226474892e-07 36107.206150793652 -2.3231650590896602 -3481.1699999999996 6.5000000000000009 662.90987179487195 740.56000000000017 4.5000000000000009 10.500000000000002
decision_type=8 2 8 2 2 2 2 8 2 2 2 10 2 2 10 2 10 2 2 2 10 2 2 2 2 10 8 2 8 2 2 2 10 2 2 2 2 2 8 2 10 2 10 10 2 2
left_child=45 2 3 42 20 7 -4 19 25 -8 11 14 17 -14 28 40 -10 22 -19 -5 26 23 -13 -22 32 -7 27 29 36 -3 43 -16 -17 -27 35 -21 -6 -25 39 -32 -9 -42 -2 -12 -45 -1
right_child=1 4 6 5 10 8 9 15 16 -11 30 12 13 -15 31 24 -18 18 -20 34 21 -23 -24 37 -26 33 -28 -29 -30 -31 38 -33 -34 -35 -36 -37 -38 -39 -40 -41 41 -43 -44 44 -46 -47
leaf_value=-0.025418152583210441 -0.022220674310841348 0.0061347497419295179 0.21743152292668794 0.0045213165752222007 0.20909672008423513 0.21210877463532907 -0.021597301788061324 0.027689757367023872 0.14124720856565123 0.17037202975626664 -0.015279732140016844 0.082673663947587114 0.80225308018488983 0.019921977988726362 0.31330096057991896 0.088919603365106251 0.31272502670450797 0.0061160309531071025 0.21046812136318299 0.014383182124058374 0.016552639993443505 -0.012757619917372396 0.32084976234055285 0.19606290392730877 0.0112921055729404 0.13925956160089847 -0.022887603381905586 -0.015058965315480063 -0.0054653513450311983 0.080328104643244636 0.46117239526572412 0.093822204140805152 0.13642877238871753 0.05433029115028068 0.036567110694202182 0.24745621732819864 0.041995631393681086 0.057308086885793814 0.015609738252861964 0.028799630681413606 0.074595723612417661 0.0034471600866874722 0.13870665447634695 0.0094940902045392035 0.11952581094370256 0.05797067937260527
leaf_weight=1490.9648567569093 71.943826703995001 104.65559008490527 5.400802089017815 83.764244946185499 2.2516058156033969 6.1149584787199265 286.30136914271861 35.959505152830388 7.771969141787852 4.9126954812090835 107.42215900844894 4.4240203408407979 2.0246836908045225 3.713054002088028 1.922260111896321 82.728835864574648 9.8619847931549867 15.172816209495069 3.2852532442775546 2.3386303792940444 127.01972519990522 175.90520732826553 3.0347619922831717 3.6317954302649005 10.282106548023874 13.443441546929533 525.0745156952762 191.93467214767588 55.294218164519407 14.213617688277735 1.6412385502480926 6.2891274872818013 46.5362841913593 24.273646352987271 9.5228090230375511 3.6494112635264173 11.244324971514287 11.485852014739065 496.221690522274 22.510048869182356 107.82299099641386 12.070308793743605 1.4794550377409894 36.587881711719092 3.8354152233805499 5.1557049285620442
leaf_count=2053467 88124 98559 3201 87105 999 2111 378180 9215 1378 2374 134544 2271 1617 2584 1507 16156 2706 14119 187 2229 116838 202947 1927 1339 4039 2920 636523 232657 64386 10482 1576 4812 11620 7265 6650 2549 9356 7432 529888 23661 34201 5061 1159 38662 3286 5043
internal_value=-0.00151298 0.0112716 0.0342957 0.0612992 0.00139674 0.0742207 -0.0137662 0.0632508 0.143938 -0.0182065 0.0186693 0.0553192 0.127764 0.303785 0.0249628 0.0782763 0.239667 0.0870788 0.0448911 0.018096 -0.0101937 0.00400302 0.185536 0.0250562 0.0996774 0.104413 -0.0156482 -0.00327578 0.0093194 0.0153786 0.0126436 0.150616 0.106366 0.0857758 0.0885513 0.163824 0.0731619 0.0935757 0.0177564 0.0600314 0.0588302 0.0678013 -0.0183744 -0.0050533 0.0210298 -0.0251012
internal_weight=4253.1 2756.97 826.179 529.564 1930.8 456.141 296.615 394.675 61.466 291.214 776.875 108.656 31.6546 5.73774 77.0015 295.4 17.634 25.9169 18.4581 99.2751 1153.92 318.043 7.45878 142.137 139.547 43.832 835.878 310.804 68.7901 118.869 668.218 8.21139 129.265 37.7171 15.5109 5.98804 13.4959 15.1176 520.373 24.1513 155.853 119.893 73.4233 147.845 40.4233 1496.12
internal_count=4868912 2810402 668243 284488 2142159 195205 383755 178825 16380 380554 835382 103765 22705 4201 81060 80292 4084 18504 14306 98533 1306777 328556 4198 125609 31815 12296 978221 341698 74741 109041 731617 6319 27776 10185 11428 4778 10355 8771 555125 25237 48477 39262 89283 176492 41948 2058510
is_linear=0
shrinkage=0.0293034


Tree=7
num_leaves=47
num_cat=0
split_feature=6 0 16 12 2 12 13 13 27 12 16 16 10 9 12 16 12 21 33 12 16 10 13 12 16 12 16 24 16 13 16 12 0 18 5 17 12 16 8 9 10 13 16 5 16 2
split_gain=1428.53 1199.96 674.044 828.061 398.59 273.967 269.132 201.503 320.457 248.025 495.908 147.642 305.043 134.554 130.417 122.277 353.35 163.037 437.314 129.574 107.58 105.29 98.6892 72.9283 347.855 70.8448 241.92 123.571 75.4219 65.8866 56.9366 167.786 156.209 238.075 59.4744 56.2915 53.4099 173.171 114.36 195.673 44.7762 38.442 114.941 36.1036 31.7197 62.2776
threshold=12.500000000000002 1033.9900000000002 14.500000000000002 1.5000000000000002 1.0000000180025095e-35 4.5000000000000009 8.5000000000000018 3.5000000000000004 1.463513255119324 13.500000000000002 57.500000000000007 7.5000000000000009 3.5000000000000004 560.58500000000015 3.5000000000000004 26.500000000000004 2.5000000000000004 1.8043992519378664 -0.81770068407058705 5.5000000000000009 12.500000000000002 3.5000000000000004 1.5000000000000002 14.500000000000002 50.500000000000007 4.5000000000000009 36.500000000000007 -0.062495198100805276 53.500000000000007 2.5000000000000004 8.5000000000000018 1.5000000000000002 124.88500000000001 49196.220573394501 -14.169999999999998 370.72000000000008 2.5000000000000004 21.500000000000004 1.5000000000000002 560.58500000000015 2.5000000000000004 2.5000000000000004 157.50000000000003 2.9404890000000008 1.5000000000000002 2.5000000000000004
decision_type=8 2 2 2 2 2 2 2 2 2 2 2 10 10 2 2 2 2 2 2 2 10 2 2 2 2 2 2 2 2 2 2 2 2 8 2 2 2 10 10 8 2 2 8 2 2
left_child=23 6 3 44 40 11 30 9 15 36 -11 12 22 -7 20 16 -9 19 -19 -18 -13 -16 -6 -1 -25 -17 27 -27 -28 -12 31 -2 35 -34 -35 43 -4 38 -38 -40 -5 -26 -43 -33 45 -3
right_child=1 2 7 4 5 13 -8 8 -10 10 29 14 -14 -15 21 25 17 18 -20 -21 -22 -23 -24 24 41 26 28 -29 -30 -31 -32 32 33 34 -36 -37 37 -39 39 -41 -42 42 -44 -45 -46 -47
leaf_value=-0.026085049400475773 -0.025400503710852833 -0.023219921310004502 -0.024813881422345987 0.044644209491006587 0.053966066322599551 0.11387817874870323 0.018970962496668142 -0.025409560835499483 0.32287309098660394 0.20047263898763013 -0.0261854919028877 -0.00038304717400364181 0.28093322762573786 0.3031620431884558 0.012147341204125929 -0.010579916658295573 0.035989875382881176 0.45389376432284867 0.070507959030202016 0.16981541246293366 0.15652199088140226 0.24252301085335407 0.086673731249918798 0.39756260023297119 -0.021708509740877621 0.10379657177549775 0.079688462301627877 0.42868078762172973 0.015516347946158391 0.11012781633190089 -0.024899552952745506 0.11850682115543286 0.027146030103057845 0.26198153985683892 0.078034615993653661 -0.024609966859035166 0.005219119199616055 -0.0085873537804069967 0.34443988581921248 0.06167744131517694 -0.018130383703157404 0.28875811597040846 0 0 -0.023634439771050373 0.026923598660831768
leaf_weight=1420.4115124595701 167.8243440532824 40.825641942676157 100.61126289522508 12.194593597436322 132.69009709538659 8.3751777112483961 180.44545939326053 26.150992114038672 3.1171296464744946 15.451596816594245 23.119754723680675 48.614429850538727 6.4582486320869057 6.6830919772037296 3.6222184580401509 64.824448285391554 24.42553038551705 4.0383442684542388 7.9299367358325963 8.988604120211674 4.0178784233285105 4.1447243395959958 239.77838028158294 1.9306810798589129 28.882705435622483 3.6290928771486506 17.0530489711673 1.7578112033079367 299.49083389755106 3.4574671637965357 635.45765475014923 4.2579422354465342 29.796159552119207 5.7787855105125345 3.1331948723527585 40.07623906515073 33.138621649937704 379.01999495009659 2.3884538664133315 27.085215672152117 46.285102669789921 1.4261809166637238 6.4271950672264211 3.2956940716831014 73.286002051201649 44.009646465419792
leaf_count=2010611 227637 53184 116062 4327 57498 2096 189801 26004 1238 2473 22405 37838 2894 1220 1987 68152 20792 2423 4231 521 3534 2983 66370 421 39108 3905 17440 1802 310981 1493 813100 3835 27148 2360 2629 48487 28665 431440 1902 22256 40008 1503 6867 3859 82039 51383
internal_value=-0.00149362 0.0107944 0.0259847 0.0489268 0.0670129 0.0762861 -0.0135335 0.0112211 0.0256969 -0.000135052 0.0683633 0.071916 0.0787654 0.200835 0.0282133 0.0235785 0.0590237 0.10865 0.203591 0.0733162 0.0107588 0.140788 0.0751406 -0.0249931 0.0139764 0.0169082 0.0225805 0.218076 0.0191133 -0.00678649 -0.0201762 -0.00819313 0.024743 0.068615 0.202285 -0.0099847 -0.00552589 -0.0010317 0.044 0.0861026 -0.00428429 -0.00499261 0.050855 0.0617559 -0.00945575 0.00227219
internal_weight=4245.81 2786.73 1716.66 670.985 512.864 454.384 1070.07 1045.68 461.406 584.272 42.0288 439.326 378.927 15.0583 60.3993 458.289 71.5334 45.3824 11.9683 33.4141 52.6323 7.76694 372.468 1459.08 38.6668 386.755 321.931 5.3869 316.544 26.5772 889.62 254.162 86.338 38.7081 8.91198 47.6299 542.244 441.632 62.6123 29.4737 58.4797 36.7361 7.85338 7.55364 158.121 84.8353
internal_count=4868912 2810402 1491546 407361 220755 176420 1318856 1084185 457489 626696 26371 173104 126762 3316 46342 456251 53971 27967 6654 21313 41372 4970 123868 2058510 47899 402280 334128 5707 328421 23898 1129055 315955 88318 32137 4989 56181 600325 484263 52823 24158 44335 47478 8370 7694 186606 104567
is_linear=0
shrinkage=0.0293034


Tree=8
num_leaves=47
num_cat=0
split_feature=6 1 16 12 13 12 16 13 27 3 27 19 12 12 16 19 33 13 3 13 3 16 12 16 3 16 13 12 16 29 13 13 16 15 32 18 1 3 18 16 3 3 16 12 18 16
split_gain=1366.23 1105.02 585.224 707.054 257.543 188.97 591.07 315.114 259.598 160.729 155.811 221.795 143.045 131.112 311.425 262.769 289.583 107.784 104.405 92.6396 86.2513 137.817 70.8503 245.476 70.4626 98.2593 66.7141 61.6771 92.025 76.7793 63.2967 60.7053 463.98 89.9869 174.956 57.1447 86.1554 191.64 79.3014 56.5014 211.489 184 47.8422 47.3582 96.3704 59.0753
threshold=12.500000000000002 6.9421470433969583 14.500000000000002 1.5000000000000002 8.5000000000000018 10.500000000000002 57.500000000000007 2.5000000000000004 -0.38451580703258509 4.5000000000000009 1.463513255119324 -0.96488109230995167 13.500000000000002 2.5000000000000004 21.500000000000004 -2.1551553010940547 -0.58586084842681874 1.5000000000000002 4.5000000000000009 3.5000000000000004 2.5000000000000004 2.5000000000000004 14.500000000000002 50.500000000000007 4.5000000000000009 36.500000000000007 2.5000000000000004 3.5000000000000004 4.5000000000000009 1.2959384918212893 8.5000000000000018 2.5000000000000004 82.500000000000014 1.3360520279440578e-06 -1.3844242095947263 279708.80800000002 10.347960207240458 2.5000000000000004 11475843.790525002 8.5000000000000018 2.5000000000000004 4.5000000000000009 6.5000000000000009 3.5000000000000004 3552.2972727272731 7.5000000000000009
decision_type=8 2 2 2 2 2 2 2 2 2 2 2 2 2 2 2 2 2 2 2 2 2 2 2 2 2 2 2 2 2 2 2 2 2 2 2 2 2 2 2 2 2 2 2 2 2
left_child=22 4 3 18 39 10 7 8 -7 19 13 -12 -10 -4 15 16 -15 -17 20 35 21 -3 -1 -24 -16 -26 -11 28 30 -30 -21 -8 -33 34 -34 43 37 -37 -38 40 42 -42 -2 45 -45 -5
right_child=1 2 5 9 -6 6 31 -9 12 26 11 -13 -14 14 24 17 -18 -19 -20 27 -22 -23 23 -25 25 -27 -28 -29 29 -31 -32 32 33 -35 -36 36 38 -39 -40 -41 41 -43 -44 44 -46 -47
leaf_value=-0.025998580349193619 0.14428570544179514 0.16894693877862782 -0.025644094891311853 0.041618157643488356 0.018066399373602843 -0.026493777088574567 -0.022849720039309976 0.23552145153700146 0.014619011429686737 0.079853198417292104 0.30243264866301472 -0.0097481053370582528 0.20791095515978023 0.48150076102407863 -0.0059439864232895987 -0.012873916185093481 0.042633946774979864 0.06352453813485906 0.1182174684549072 0.11502890588629842 -0.020814881062452911 -0.023354330412775511 0.29212584586307699 -0.0048976499290360898 0.096391721897469446 0.0038901155988651545 0.14111317204638246 0.16382275673704974 0.016561302781648132 0.18137783786605402 0.007959395010810234 0.53857228060459172 0.29156421697689927 0.010469175378718479 0.034646988684735279 0.050689022041781766 0.01378467091408794 0.17587729666153884 0.11518079819058179 -0.024784739018890851 -0.018631505039571835 0.13455082154285272 0 -0.0094662957682252052 0.10397684333932927 -0.0007287245256815838
leaf_weight=1383.9132583505707 9.1881499720620905 5.5366934809135255 131.15148623677669 226.79963578167371 183.88592801464256 12.873617621953601 33.83019734051777 15.605755212600341 5.4208669614745331 55.837695510068443 3.5734262117184699 3.7389416691730721 11.001750146446282 2.6065733367577195 443.30321351066232 20.247180539881811 3.0478300491231485 60.787772133597173 5.2568827345385207 38.644877808983438 139.08379121747566 6.8094752046163194 2.5391740121413013 36.59284733585082 14.085071451787369 36.591855786566157 25.718534187879413 8.1677168692112883 28.433353962958794 2.7771009536227202 6.4313434605137436 1.4679789353976946 2.8732663847040412 240.32837099890457 13.939278228557667 30.977579822472762 32.751286181446631 17.153044206206687 8.7899486914393474 619.92367978551192 233.89060092612635 6.8753645907854652 2.3372889423626466 7.7492940758238538 24.830876880034339 29.987145425460767
leaf_count=2010611 4848 2368 150202 99636 189794 10025 36000 326 4345 14116 1325 1743 1099 1232 501698 17326 1944 45941 1942 10355 178265 4031 421 47478 12502 38602 5074 2238 15875 1076 1518 572 1889 247107 10314 1820 19697 6684 4320 813100 305588 3051 2468 3771 9797 24778
internal_value=-0.00147942 0.0103414 0.0245812 0.0453444 -0.0133233 0.0107479 0.0288536 0.127958 0.0691456 0.061126 0.00219313 0.136793 0.146803 0.000748147 0.00678527 0.0580304 0.25281 0.0438908 -0.00927151 0.0542405 -0.0139898 0.0593144 -0.0248881 0.0132547 -0.00211852 0.030473 0.0997146 0.0827223 0.0734579 0.0326479 0.100733 0.0134853 0.0184094 0.0152657 0.081198 0.0477776 0.0689602 0.0962251 0.0363055 -0.0199917 -0.00803941 -0.0140731 0.114162 0.0410605 0.075639 0.036501
internal_weight=4237.36 2814.31 1758.21 701.736 1056.1 1056.47 337.341 44.902 29.2962 545.049 719.133 7.31237 16.4226 711.821 580.669 86.6894 5.6544 81.035 156.687 463.493 151.43 12.3462 1423.05 39.132 493.98 50.6769 81.5562 84.4544 76.2867 31.2105 45.0762 292.439 258.609 257.141 16.8125 379.039 89.6719 48.1306 41.5412 872.215 252.291 240.766 11.5254 289.367 32.5802 256.787
internal_count=4868912 2810402 1491553 407361 1318849 1084192 311677 15795 15469 220755 772515 3068 5444 769447 619245 66443 3176 63267 186606 201565 184664 6399 2058510 47899 552802 51104 19190 31062 28824 16951 11873 295882 259882 259310 12203 170503 32521 8504 24017 1129055 315955 308639 7316 137982 13568 124414
is_linear=0
shrinkage=0.0293034


Tree=9
num_leaves=47
num_cat=0
split_feature=6 1 5 9 13 5 17 13 13 27 6 1 1 2 2 2 5 1 1 18 18 18 5 18 13 1 18 17 13 17 9 5 1 32 5 30 2 23 1 7 5 1 9 26 1 1
split_gain=1307.45 1020.37 320.061 331.24 241.011 131.344 134.138 107.399 106.359 172.804 134.605 159.73 177.62 82.7165 81.9803 79.948 61.1424 60.4275 109.768 81.9854 73.4319 52.2722 49.3796 47.9816 47.2188 46.4809 72.88 81.9778 41.7675 35.3189 33.7068 46.1597 30.4415 31.1638 28.6273 25.459 23.4128 25.7111 22.4641 30.5812 119.711 17.6781 27.6229 18.9039 17.2123 15.8614
threshold=12.500000000000002 6.8793660922616775 2140056.0250000008 1.0000000180025095e-35 8.5000000000000018 498176.99000000005 1933563.7450000003 1.0000000180025095e-35 3.5000000000000004 1.463513255119324 1137.5000000000002 8.6902873058685763 11.187492787371832 19.500000000000004 1.0000000180025095e-35 1.0000000180025095e-35 63.045000000000002 9.9056611876401153 9.3854749138321996 19717.327548076926 2827.0736032388672 797808.52964912297 6283.300000000002 7250374.8569404939 2.5000000000000004 5.6105152025015013 55486.259500000007 332157.24500000005 10.500000000000002 134002.65000000002 15.915000000000003 -75.184999999999988 9.6304336287521295 -1.9586256742477415 -409.37 -0.98855322599411 7.5000000000000009 1.7918160557746889 8.0848012891958536 888.2650000000001 1726.3900000000006 16.184512150087873 inf 0.3070084303617478 7.3945852971163681 0.57654032526168686
decision_type=8 2 8 10 2 10 2 2 2 2 8 2 2 2 2 2 10 2 2 2 2 2 10 2 2 2 2 2 2 2 10 8 2 2 10 2 2 2 2 10 10 2 8 2 2 2
left_child=28 4 3 5 25 7 -7 -3 17 10 -10 21 -13 14 -9 -4 -16 18 19 29 -20 -12 -22 34 -21 45 -27 -28 38 -5 31 -29 33 -17 -15 -35 -37 -38 -1 40 -40 -34 -43 -44 -30 -2
right_child=1 2 15 8 -6 6 -8 13 9 -11 11 12 -14 23 16 32 -18 -19 20 24 22 -23 -24 -25 -26 26 27 30 44 -31 -32 -33 41 35 -36 36 37 -39 39 -41 -42 42 43 -45 -46 -47
leaf_value=-0.02840431850887714 -0.0082389197680618094 -0.013620465446128398 -0.026708844465228955 0.0089945736503945287 0.016850016023996529 0.26792441758143348 0.04042998094750478 0.0080254192707538419 0.010732197398282664 0.21257932341650462 0.0042713372702920848 0.088614759942293508 0.014157805260236522 0.036406525780084756 0.045624045009056646 -0.011499726456329106 0.069911444884812629 -0.0042259689867352734 0.23752275607562101 0.047867432753277088 0.072034107769096051 0.090947283016328415 0.014380716387753588 0.11707758266583895 0.009663827540248443 -0.016953286047459451 0.24064303062391282 0.11452445692129812 0 -0.0157270203108309 0 0 -0.011513711306902059 0 0.0013866893484046044 0.011749860291581383 0.086806777293145856 0 0.28501880692099152 -0.022323521602437012 -0.0049231919357451961 0 0.0018769597305870814 0.11562333636034404 0.095539874976224667 -0.026526366021411285
leaf_weight=809.85021538549336 52.076933421660215 25.137738626042847 106.14505186252063 107.13689977600006 183.64991903357441 4.7537826452753489 5.2013954374706373 34.971202480955981 225.63495690288255 4.4138587640481992 77.836905709526036 85.774339989817236 42.753243651066441 35.196382231719326 223.02421194617637 13.982161081570665 173.04558481625281 184.21410082525108 1.9125045932014462 57.073057231027633 30.284453875210602 6.6268341470859005 25.947987621766515 4.4093720467644735 61.036760703194886 225.67180329514667 1.462582311942241 5.9974840901559219 1.9991192203597155 91.306316358793993 33.01773954561213 7.0606092974194308 67.940998215053696 12.25196243857499 53.103726633882616 10.336105947615581 15.765492923324929 2.4294807377737007 1.2555243183742266 530.28224626515293 41.204364936740603 18.843943180923819 3.2581716103595673 3.5244342756341211 3.3506556241190992 515.79918375075795
leaf_count=1213957 70964 27901 138923 102747 186173 688 2989 8171 232682 1032 76228 64266 37174 11529 89545 17242 63027 186302 1450 51707 20652 5363 26364 1399 66107 303982 916 2901 2457 104029 42701 8222 74848 13991 33301 11682 16466 2924 1041 778967 59502 17811 2300 2308 2586 681395
internal_value=-0.00146224 0.00991842 0.0231242 0.0280984 -0.013432 0.0462244 0.153517 0.0441977 0.0179445 0.0287163 0.0267649 0.0435417 0.0641915 0.0470571 0.0525291 -0.00721057 0.0563471 0.00932674 0.0161076 0.00914122 0.0532733 0.0115958 0.0462167 0.0211386 0.0284988 -0.0200966 -0.00989435 0.022686 -0.0247812 -0.0021576 0.014803 0.0546762 0.00644447 0.0238993 0.0158461 0.0371186 0.0523031 0.0729108 -0.0251194 -0.0203974 0.00261749 -0.00329997 0.0167523 0.0675034 0.0543648 -0.0249271
internal_weight=4227.95 2840.01 1815.27 1560.8 1024.74 558.843 9.95518 548.888 1001.95 443.04 438.626 212.991 128.528 523.75 431.041 254.478 396.07 558.912 374.698 316.553 58.1449 84.4637 56.2324 92.7095 118.11 841.086 273.21 47.5384 1387.94 198.443 46.0758 13.0581 148.333 54.7652 88.3001 40.783 28.5311 18.195 1382.59 572.742 42.4599 93.5675 25.6265 6.78261 5.34977 567.876
internal_count=4868912 2810402 1513148 1214653 1297254 238550 3677 234873 976103 416745 415713 183031 101440 206972 160743 298495 152572 559358 373056 324590 48466 81591 47016 46229 117814 1111081 358722 54740 2058510 206776 53824 11123 159572 62305 44830 45063 31072 19390 2053467 839510 60543 97267 22419 4608 5043 752359
is_linear=0
shrinkage=0.0293034


Tree=10
num_leaves=47
num_cat=0
split_feature=6 1 2 10 13 12 9 11 14 10 1 14 13 1 13 22 32 8 15 15 13 11 1 15 15 10 15 15 20 17 10 9 15 2 2 11 17 9 11 1 12 10 15 10 14 10
split_gain=1252.45 944.028 290.199 262.641 231.044 219.113 195.944 151.542 150.606 421.443 143.558 117.892 148.072 144.778 112.809 136.908 485.602 96.367 91.8752 84.6192 120.388 78.1671 73.7237 73.0918 67.7905 67.6154 65.253 63.6724 62.8216 56.9066 51.8138 58.1764 102.698 44.5904 68.9529 40.3207 40.0238 38.0978 37.8474 45.0107 33.5487 52.1756 25.1437 23.1213 22.3462 18.2848
threshold=12.500000000000002 6.8793660922616775 1.0000000180025095e-35 6.5000000000000009 8.5000000000000018 1.5000000000000002 46003431.287944458 500.35166666666674 13.500000000000002 35.500000000000007 7.9264311031445507 19.500000000000004 2.5000000000000004 8.2091614597603382 3.5000000000000004 2.368292093276978 -0.73478701710700978 14.500000000000002 5.4594273013468822e-07 1.5772521737532877e-06 3.5000000000000004 20516.987666666671 11.270935747554072 3.4973040571648837e-07 2.0325491421874016e-06 1.0000000180025095e-35 1.2646644510190102e-06 3.5018350280205526e-07 -2.4143261909484859 23591.595000000005 3.5000000000000004 16646667.007500002 8.803905520905654e-07 7.5000000000000009 19.500000000000004 62671.056902173928 268306.3000000001 1195.4433333333336 658827.3928675137 9.2177036959904157 2.5000000000000004 15.500000000000002 5.8974744455756887e-06 31.500000000000004 13.500000000000002 2.5000000000000004
decision_type=8 2 2 10 2 2 8 10 2 10 2 2 2 2 2 2 2 10 2 2 2 10 2 2 2 10 2 2 2 2 8 8 2 2 2 10 2 10 10 2 2 10 2 8 2 8
left_child=11 4 21 5 30 24 22 10 14 17 -5 -1 -13 -14 40 28 -17 18 -10 20 -11 45 38 -8 25 27 -15 -4 -16 -29 31 -2 -33 36 -35 -34 -25 -23 42 -40 -9 -42 -7 -6 -24 -3
right_child=1 2 3 7 43 6 23 8 9 19 -12 12 13 26 15 16 -18 -19 -20 -21 -22 37 44 33 -26 -27 -28 29 -30 -31 -32 32 35 34 -36 -37 -38 -39 39 -41 41 -43 -44 -45 -46 -47
leaf_value=-0.025755251790175328 -0.018565326884468079 0.01531577319864501 0.01945060035478716 0 0.093772450055543924 0.023083491842707238 -0.0016204873921050798 -0.024712700336628046 0.20469856509092696 0.017466928602077617 0.25074849925763937 -0.025281391171701688 0.0051400697367291123 0.37805507469292687 0.079010816764793351 0 0.58277950019953273 -0.0072666870242684978 0.097410507581685332 0.009047701570316662 0.14580015236870106 0.080488632421015213 -0.012927400622230302 0.02666893189234874 -0.022122651020787323 -0.023044779212000998 0.12048464715002381 0.17726150961313505 0.01257028216668663 0.024328368539767432 -0.023287916504463213 -0.007483187889335545 0.042705073515144708 0.070911410341561384 0.036888880625652327 0.14566992920738661 0.060942620478821152 0.007772418375673544 0.11312862166445403 0.012431659527334559 0.014098795678003194 -0.010145974273434132 0.092696811863185305 0.014381950498870701 0.058931645484224075 -0.02475266673534399
leaf_weight=1333.8346488609677 87.976830048311967 9.1123410246800614 22.514331164769828 3.5551064818864671 3.4358636706601819 146.40763529745163 17.40838487300789 60.353122765896842 10.361174652178304 19.674036990385506 4.5310514605371282 10.933592701505406 4.6561752572888491 2.1201018131105229 13.900465022190472 4.3145309834508225 1.6972647822112765 4.6346162992995223 31.703174502705224 237.82185791229131 9.9437518401537073 8.0568662473815476 52.263085604005028 74.957194437040016 58.780611951486208 15.884595306881236 2.5912648625089787 5.4532269644550961 134.49677570955828 4.6233561760745943 681.44466766633559 36.768409245181829 12.77343235636363 247.41963613021653 72.355496760399546 5.5998081951402119 57.036398761440068 35.066849803610239 10.335548051516527 7.758452084963209 123.19148552435217 199.05896869883873 5.0916348269092842 183.32667391782161 3.8489530568476757 140.930126644962
leaf_count=2034724 116331 4019 24827 3406 2851 117766 14182 72132 1720 17511 2383 15948 4577 1883 11502 4173 1018 3863 13501 242319 6545 3425 46045 25318 73162 15258 1378 3034 128920 3733 939066 43665 9889 69382 22987 2130 19329 33475 7013 5729 117526 239366 2137 183322 920 155522
internal_value=-0.00143436 0.009528 0.0219566 0.0259175 -0.0132195 0.0380105 0.0440287 0.0145767 0.0133198 0.0294572 0.141397 -0.0246675 0.0446233 0.130922 0.00379751 0.0249841 0.163048 0.110831 0.124892 0.0150827 0.0620482 -0.0118819 0.0212724 0.0548817 -0.000567396 0.0246589 0.245827 0.0492646 0.019092 0.111486 -0.0199093 -0.00351381 0.0196993 0.0571567 0.0633514 0.0764977 0.0418141 0.0223841 0.0309566 0.0723956 -0.00463744 -0.000740483 0.0257153 0.0160796 -0.00721005 -0.0220248
internal_weight=4220 2865.87 1854.54 1661.38 1011.33 802.139 694.882 859.237 851.151 314.139 8.08616 1354.14 20.3011 9.36754 537.013 154.409 6.0118 46.699 42.0643 267.44 29.6178 193.166 225.705 469.177 107.256 48.4755 4.71137 32.5909 148.397 10.0766 824.563 143.118 55.1416 451.769 319.775 18.3732 131.994 43.1237 169.593 18.094 382.604 322.25 151.499 186.763 56.112 150.042
internal_count=4868912 2810402 1513148 1316707 1297254 450822 330808 865885 860096 285459 5789 2058510 23786 7838 574637 145613 5191 19084 15221 266375 24056 196441 179610 151198 120014 46852 3261 31594 140422 6767 1111081 172015 55684 137016 92369 12019 44647 36900 132645 12742 429024 356892 119903 186173 46965 159541
is_linear=0
shrinkage=0.0293034


Tree=11
num_leaves=47
num_cat=0
split_feature=6 16 12 14 16 5 5 16 3 12 13 3 10 12 3 5 16 14 16 9 9 16 17 3 5 33 29 34 16 3 13 16 10 13 34 3 16 22 11 16 11 11 5 15 20 16
split_gain=1199.94 486.745 987.843 446.356 833.872 392.578 176.549 163.236 144.822 144.543 149.6 177.217 121.011 135.059 114.467 114.035 120.479 111.25 233.551 110.728 102.865 95.7199 113.479 90.8762 86.0886 85.3303 106.549 169.932 85.0106 77.2734 71.0851 188.706 67.1045 62.7391 60.6513 56.0901 66.0642 67.274 55.3895 52.2228 48.7321 39.2003 37.9166 34.9038 50.45 33.951
threshold=12.500000000000002 8.5000000000000018 1.5000000000000002 14.500000000000002 57.500000000000007 inf 740.56000000000017 21.500000000000004 4.5000000000000009 2.5000000000000004 1.5000000000000002 2.5000000000000004 3.5000000000000004 2.5000000000000004 2.5000000000000004 -590.73499999999979 21.500000000000004 19.500000000000004 70.500000000000014 44613.722500000003 4418.2433333333347 5.5000000000000009 62411.980000000003 3.5000000000000004 -2273.9399999999991 -0.5660010278224944 0.78442126512527477 -0.47529351711273188 20.500000000000004 3.5000000000000004 2.5000000000000004 82.500000000000014 4.5000000000000009 2.5000000000000004 0.30636514723300939 4.5000000000000009 35.500000000000007 0.79657074809074413 29055.646789215691 4.5000000000000009 15454391.666720781 4208804.4088639067 -2901.7299999999991 4.9856234203174451e-06 -2.7711489200592037 7.5000000000000009
decision_type=8 2 2 2 2 8 10 2 2 2 2 2 10 2 2 8 2 2 2 8 10 2 2 2 10 2 2 2 2 2 2 2 10 2 2 2 2 2 8 2 8 8 10 2 2 2
left_child=17 2 8 6 20 12 15 9 14 -8 -11 19 21 45 24 16 25 -1 -19 -12 -5 22 33 -15 -2 26 28 -28 -3 40 -6 -32 -13 42 -22 -9 37 -37 -35 -31 -24 -20 -4 -18 -45 -14
right_child=1 3 5 4 30 -7 7 35 -10 10 11 32 13 23 -16 -17 43 18 41 -21 34 -23 29 -25 -26 -27 27 -29 -30 39 31 -33 -34 38 -36 36 -38 -39 -40 -41 -42 -43 -44 44 -46 -47
leaf_value=-0.025660992765012575 0.12695493528261018 0.020473872371894703 0.0009068029900667255 0.064912330659300729 -0.025935992536947835 -0.014494352896430905 -0.011347018508974847 -0.0066600339153225097 0.12489768622682702 0 0.29852316192349992 0.018960163024316107 0.13510172224833819 0.27358227054401274 -0.023905181130772075 -0.023358341250664605 -0.013486407377447093 0.2772751866241096 -0.011058294156018462 0.098184331359312232 0.20753237555617388 0.017988284338120643 0.04949213137285198 0.10776326919939105 -0.021419472670217061 0.0018756326949068316 0.37931180819572213 0.041950294598353005 0.1919904921897182 0.10248043069195711 0.21669085651193495 0.013229792242097497 0.09952593176040235 0.052997406107447798 0.12044334474379391 0.037442886709354507 0.0068554682142823063 0.22407668229933814 0.12917379057228776 0.035650668973996311 0.093897449390642637 0.15153851035914495 0.03851008219104906 0.16905434786780699 0 -0.02041969858532779
leaf_weight=1300.0043583988445 7.7730597477057017 29.415327558177523 31.302685112517793 13.606553862337021 38.651446407369804 76.06805863766931 31.759355162386782 294.78621047729393 5.9769044001586726 22.21005904651247 5.2054993349011029 19.867530449060723 1.5122351966565499 5.7438765416736706 283.1456494058948 568.97333296283614 299.45760522648925 3.0749755754950483 16.851072511228271 6.0319840957527058 17.965327879646793 62.144928697613068 127.4871415271773 8.37279571831459 5.1336448314832506 54.306167529721279 2.2511044154525734 3.8061427405918939 2.8393176719546309 80.924125299032312 3.9790556599036782 464.23610732430825 18.867558554979041 54.453596355277114 17.241619851556607 5.9050837575341557 24.679657956643496 2.8294278880930506 11.076692073664161 13.923296032473443 29.290342780179344 1.3749313349253487 123.30161787715042 2.138524065958336 6.1826216257177276 4.9591143014258705
leaf_count=2034724 2753 24610 12959 4476 42327 96389 31464 325875 1895 16173 2175 10757 1076 2097 400727 753766 364867 1302 20909 2789 2011 19697 24243 2154 2031 48564 1282 2668 1945 15466 1966 454354 9299 14833 1748 4172 24080 1959 2202 3986 2573 1575 57619 1982 6850 5543
internal_value=-0.00140959 0.00915642 0.0265803 0.000831461 0.0230761 0.0474713 -0.00795672 0.00755248 -0.0168886 0.0395803 0.0625993 0.0907238 0.0560518 0.127323 -0.0199008 -0.0149162 -0.00280948 -0.0245516 0.0410805 0.194938 0.138832 0.0532205 0.0577679 0.178378 0.0645204 0.0263462 0.0598788 0.174665 0.0369478 0.0714642 0.0118408 0.0150537 0.0593452 0.0419115 0.166143 -0.00245635 0.0333065 0.102978 0.0665497 0.0931363 0.0580706 0 0.0311823 -0.0117267 0.0462859 0.00911602
internal_weight=4211.09 2889.78 932.59 1957.19 555.68 630.561 1401.51 432.142 302.029 103.942 72.1826 49.9726 554.492 20.588 296.052 969.37 400.397 1321.31 21.301 11.2375 48.8135 533.904 471.759 14.1167 12.9067 92.6181 38.3119 6.05725 32.2546 251.625 506.867 468.215 38.7351 220.135 35.2069 328.2 33.4142 8.73451 65.5303 94.8474 156.777 18.226 154.604 307.779 8.32115 6.47135
internal_count=4868912 2810402 668243 2142159 506882 260837 1635277 428743 407406 72657 41193 25020 164448 10870 405511 1206534 452768 2058510 23786 4964 8235 153578 133881 4251 4784 79069 30505 3950 26555 46268 498647 456320 20056 87613 3759 356086 30211 6131 17035 19452 26816 22484 70578 373699 8832 6619
is_linear=0
shrinkage=0.0293034


Tree=12
num_leaves=47
num_cat=0
split_feature=4 7 0 4 16 11 12 13 4 0 18 26 34 13 12 0 16 14 11 12 10 5 5 15 18 13 26 14 16 5 27 16 12 11 5 17 13 14 16 14 0 11 27 15 16 0
split_gain=2404.53 1084.97 888.573 591.569 377.675 352.367 214.055 206.676 231.515 196.602 167.394 151.482 659.279 150.287 177.002 147.952 130.314 334.451 110.762 128.564 118.385 110.732 94.6627 94.2346 91.2563 78.866 74.1623 69.3836 147.558 66.9003 61.5243 58.7708 57.2675 54.3474 48.9736 49.7008 43.0411 42.2458 178.537 216.919 58.6402 37.1343 34.8885 34.0567 26.5812 25.5217
threshold=1.0000000180025095e-35 1.0000000180025095e-35 1065.7350000000004 146970.00000000003 4.5000000000000009 91.846838235294129 2.5000000000000004 5.5000000000000009 1650.0000000000002 942.99500000000012 24702.171683467746 -0.90545949339866627 1.064430892467499 2.5000000000000004 7.5000000000000009 5131.1450000000013 21.500000000000004 11.500000000000002 3652.4703787878789 5.5000000000000009 4.5000000000000009 -298.505 32.82500000000001 7.1312190456064586e-07 6294415.4826897364 3.5000000000000004 0.61112162470817577 16.500000000000004 57.500000000000007 0.024816000000000001 1.463513255119324 26.500000000000004 3.5000000000000004 71588.927737961945 -0.021516499999999997 3999.9600000000005 3.5000000000000004 11.500000000000002 150.50000000000003 19.500000000000004 3243.7750000000005 28.678108711778179 -0.37524172663688654 4.5134714169988074e-06 2.5000000000000004 61458.085000000006
decision_type=8 10 2 10 2 10 2 2 8 2 2 2 2 2 2 2 2 2 10 2 10 8 10 2 2 2 2 2 2 10 2 2 2 10 10 2 2 2 2 2 2 10 2 2 2 2
left_child=1 2 25 7 -4 -6 -7 8 -2 -10 29 12 -9 14 32 33 17 21 20 -20 -15 26 -23 -16 45 -1 -11 30 -29 34 -18 -27 -8 -12 35 -5 -30 -3 39 40 -39 44 -42 -13 -31 -17
right_child=3 37 4 10 5 6 13 11 9 16 15 43 -14 18 23 24 27 -19 19 -21 -22 22 -24 -25 -26 31 -28 28 36 41 -32 -33 -34 -35 -36 -37 -38 38 -40 -41 42 -43 -44 -45 -46 -47
leaf_value=-0.013432568722491498 -0.028605347881167968 -0.010087821497362022 0.17691696755946087 0.1036399564759705 0.0032216639004748371 0 0.099974398473713116 0.0036820381494031395 -0.023986219078918292 0.014250516674758686 0.11464510907516202 -0.014742751039430822 0.40279778495737573 0.12807243323475298 0.087359500253309227 0.020149073243244154 -0.016573811571105952 0.35187704526000008 0.09114913303303282 0.17051045141887056 0.32224195869810818 -0.012271230211912827 0.017394300577838119 -0.0023104962468689576 0.081202057296090549 0.15667356299578705 0.073103450778375947 0.18770266509881806 -0.017665199016845635 0.064187931102670723 0.070424941469229285 0.0088785063235037719 0.20451777624863726 0.055244962128985824 -0.028771164964472296 0 0.078760922069730038 -0.0077245448303536182 0.012745737764285756 0.38029343461982512 0.042872455114952614 0.0061002242587667472 0.19672115508539378 0.010503763423668709 0.012430941346738436 -0.0083804142807474523
leaf_weight=66.451579995802604 1125.6652799815638 53.861547579697799 60.084336175583303 4.2940632294630623 33.147075122746173 14.444014950364361 13.098650053201711 19.048898985027339 650.69658706063638 51.305192753730807 19.586988619877957 67.08676295686746 4.4351447870139955 6.4755426357150991 19.556855800445192 64.158640070352703 524.98215831915149 2.4190010003512716 40.520219538651872 37.016002212592866 6.4374312575673684 232.62165006727446 153.06915659527294 18.828992743743584 17.418553439609241 4.3069672882556898 30.992860923928674 4.3808945911587243 18.844976593973119 22.307412964000832 6.8883292559185056 6.5106126932660118 10.039616106078027 63.466581339249387 67.007120162597857 52.00876303226687 5.0108452641870818 4.6896133432746847 314.41287731117336 2.3622127881390034 3.7592565719969571 70.835511479061097 3.0936070716124959 142.00456694798777 17.793928727915045 43.759364348894451
leaf_count=30428 1838411 65492 1201 3289 3071 7927 2295 18963 985389 34339 5149 81310 2925 436 1256 13269 640283 887 12922 6907 2671 283361 128474 1980 2915 1834 19797 692 20568 6191 2458 8239 2898 10374 89119 23722 3055 4670 307965 387 2325 25665 1478 140230 6888 14807
internal_value=-0.00138727 0.0473841 0.0857442 -0.0114719 0.111706 0.0918507 0.109238 -0.0160892 -0.0182945 -0.0113644 0.0201338 0.0103354 0.0809548 0.119485 0.0824441 0.0392571 -0.00335182 0.00796078 0.14419 0.129608 0.228311 0.00608787 -0.000383331 0.0422253 0.0186739 -0.000925461 0.0369515 -0.0129316 0.0313178 0.00293268 -0.0153639 0.0718154 0.147252 0.0697868 -0.0116978 0.00783734 0.000740195 0.0134513 0.0174475 0.120577 0.0635664 0.019593 0.11879 0.00219216 0.0423245 0.00817148
internal_weight=4201.19 719.097 336.918 3482.09 259.649 199.564 166.417 3039.45 2806.88 1681.21 442.637 232.575 23.484 151.973 61.5241 208.39 1030.52 470.408 90.4492 77.5362 12.913 467.989 385.691 38.3858 125.337 77.2692 82.2981 560.107 28.2367 234.247 531.87 10.8176 23.1383 83.0536 123.31 56.3028 23.8558 382.179 328.318 13.9047 11.5425 110.937 6.85286 209.091 40.1013 107.918
internal_count=4868912 466382 84065 4402530 43564 42363 39292 4201142 3957714 2119303 201388 243428 21888 31365 8429 46514 1133914 466858 22936 19829 3107 465971 411835 3236 30991 40501 54136 667056 24315 154874 642741 10073 5193 15523 116130 27011 23623 382317 316825 8860 8473 38744 3803 221540 13079 28076
is_linear=0
shrinkage=0.0293034


Tree=13
num_leaves=47
num_cat=0
split_feature=4 7 0 4 16 4 0 14 13 31 26 18 3 3 16 14 0 5 13 8 5 18 26 14 16 5 13 19 16 5 16 17 14 16 14 16 8 16 28 18 0 16 8 0 9 0
split_gain=2206.01 919.99 727.68 561.804 285.104 199.403 249.017 185.042 165.014 328.055 410.991 148.273 144.236 220.679 139.582 211.808 122.392 118.006 116.694 90.5182 89.0914 77.4962 67.5497 62.9249 123.136 62.4659 59.4092 59.3778 49.5667 47.6915 46.2858 41.7637 39.0651 151.253 147.475 38.6542 77.4943 46.2563 36.5 36.3376 34.7577 29.4934 40.3926 27.1725 25.6706 23.6342
threshold=1.0000000180025095e-35 1.0000000180025095e-35 1033.9900000000002 146970.00000000003 4.5000000000000009 1650.0000000000002 541.97000000000014 22.500000000000004 5.5000000000000009 -1.9690168499946592 -0.90545949339866627 24702.171683467746 4.5000000000000009 2.5000000000000004 21.500000000000004 11.500000000000002 5131.1450000000013 -298.505 2.5000000000000004 1.5000000000000002 32.82500000000001 6294415.4826897364 0.61112162470817577 16.500000000000004 57.500000000000007 0.024816000000000001 3.5000000000000004 -2.7228035926818843 26.500000000000004 -0.021516499999999997 8.5000000000000018 3999.9600000000005 11.500000000000002 202.50000000000003 16.500000000000004 13.500000000000002 3.5000000000000004 76.500000000000014 -0.19448877871036527 6294415.4826897364 1726.6050000000002 73.500000000000014 6.5000000000000009 3243.7750000000005 6062.1005000000014 61458.085000000006
decision_type=8 10 2 10 2 8 2 2 2 2 2 2 2 2 2 2 2 8 2 10 10 2 2 2 2 10 2 2 2 10 2 2 2 2 2 2 10 2 2 2 2 2 10 2 8 2
left_child=1 2 26 5 -4 7 -7 -2 14 10 -10 25 13 35 15 17 30 22 -14 44 -19 45 -8 -16 -25 29 -1 -11 -28 31 40 -5 -3 34 43 -6 -37 -38 -12 -26 -13 42 -21 -34 -15 -18
right_child=3 32 4 11 12 6 8 -9 9 27 38 16 18 19 23 -17 21 20 -20 41 -22 -23 -24 24 39 -27 28 -29 -30 -31 -32 -33 33 -35 -36 36 37 -39 -40 -41 -42 -43 -44 -45 -46 -47
leaf_value=-0.012997302251064222 -0.02863111000172704 -0.0098923127079007592 0.15344221969151814 0.090589164183929677 0.1598082255002011 -0.025438685972036627 0.014389828339810437 0.0079127203226135642 0.38802300463365785 0.12914866298577188 0.0010665804680604683 0.10405571232936638 0.080443125461573561 -0.015379837380568485 -0.015927760027924946 0.23487321648964252 0.019199001572335086 -0.012214421456916818 0.20141064694494407 0.069687029047505122 0.015630717680747086 0.073092880333689811 0.06713198445645964 0.15456772893641466 -0.0084638601601254443 0.018681355137827933 0.13135701491716034 -0.0047635424823432981 0 -0.028748687622419965 0 0 -0.0090312737192019838 0.011907312499619753 0.22095935590315252 0.061877151766486962 0.16991442262389511 0.067303008636949921 0.1258777859346728 0.14263029594733811 0.056637970871933181 0.026244602976463242 0.14707853712704655 0.076383560151978683 0.031090920079325776 -0.0082035117467740178
leaf_weight=64.792433118680492 1126.0789854245959 53.324595801299438 67.101825259393081 4.761200438195373 16.66284436325077 562.14842420077184 56.499814536888152 130.98895618889946 4.86689232464414 3.0435268551809704 6.1673744952422558 22.203736401512288 15.217720305779951 11.692722242965827 576.14337400288787 3.489494021923746 65.342366469034459 250.69836518494412 15.621995616704224 40.310905368940439 162.32221515348647 18.762479530123528 35.941808839968871 5.3268869710736935 24.569181459606629 113.0040981482598 4.7993681961088424 38.37725631223293 6.4947877177619375 65.122212404501624 8.9509989672806096 52.00876303226687 4.9928126453887689 316.53867182374233 5.961375910032074 25.286779056594241 16.289037572860256 7.1025089020840815 3.6515795218874691 1.4461335507221509 57.651795089652296 11.802462014020419 8.5074893251294252 6.1689593029441312 46.271644353168085 43.398487564525567
leaf_count=30171 1890935 65492 1209 3289 167 872107 40068 132251 1377 1586 3929 2732 1177 1266 724081 987 13269 315200 2614 9637 138268 2915 23136 761 24946 38744 1807 27807 8169 89119 8390 23722 5145 305779 1810 7143 4070 2831 2241 1462 4401 4649 2500 4091 6655 14807
internal_value=-0.00137159 0.0443386 0.0782226 -0.0112746 0.0999327 -0.0158796 -0.00939845 -0.024788 -0.00167066 0.0473022 0.16638 0.0191614 0.0830078 0.0726813 -0.0041714 0.0070915 0.0366841 0.00543108 0.143157 0.0482146 -0.00116398 0.0178032 0.0353746 -0.0136802 0.0262259 0.00283705 -0.00162375 0.00401305 0.0597085 -0.0114896 0.0632942 0.00753086 0.0128823 0.0166545 0.101824 0.116407 0.10064 0.140651 0.0519898 0 0.0703768 0.0735506 0.0840818 0.0342225 0.0209546 0.0078565
internal_weight=4187.91 744.941 357.955 3442.97 281.868 2991.76 1734.69 1257.07 1172.54 56.1066 14.6858 451.206 214.766 183.926 1116.44 508.952 216.31 505.462 30.8397 118.585 413.021 127.503 92.4416 607.486 31.3422 234.896 76.0866 41.4208 11.2942 121.892 88.8065 56.77 386.986 333.662 17.1231 65.3412 48.6783 23.3915 9.81895 26.0153 79.8555 60.6209 48.8184 11.1618 57.9644 108.741
internal_count=4868912 466382 84065 4402530 43918 4201142 2177956 2023186 1305849 36940 7547 201388 42709 38918 1268909 517659 46514 516672 3791 24707 453468 30991 63204 751250 27169 154874 40147 29393 9976 116130 15523 27011 382317 316825 11046 14211 14044 6901 6170 26408 7133 16786 12137 9236 7921 28076
is_linear=0
shrinkage=0.0293034


Tree=14
num_leaves=47
num_cat=0
split_feature=4 0 17 4 2 4 0 12 2 18 10 8 2 0 18 22 26 29 0 11 27 12 11 18 0 5 0 5 8 18 17 27 11 17 11 2 0 0 0 5 25 0 10 28 17 20
split_gain=2032.7 632.035 713.196 533.771 362.204 197.465 243.271 179.954 157.9 131.944 129.204 183.716 121.098 115.908 119.216 160.182 374.241 158.627 102.312 100.091 99.3681 91.0721 68.7618 66.4294 63.503 58.2928 49.7576 46.4511 39.9871 38.3729 48.8544 36.9877 36.5169 35.8848 32.0962 30.5779 27.5404 22.4484 21.9096 26.5702 20.8998 19.841 19.1381 17.6864 17.5682 16.2078
threshold=1.0000000180025095e-35 4314.0750000000007 969587685.06000018 146970.00000000003 1.0000000180025095e-35 1650.0000000000002 541.97000000000014 291.50000000000006 19.500000000000004 24702.171683467746 2.5000000000000004 2.5000000000000004 6.5000000000000009 72220.480000000025 24702.171683467746 2.154263019561768 -0.94938716292381276 1.9889302849769595 5131.1450000000013 2866.8153676470597 1.463513255119324 15.500000000000002 6645.4479166666679 6294415.4826897364 21917.890000000003 0.024816000000000001 2384.1200000000003 -0.021516499999999997 1.0000000180025095e-35 1898073.7378027902 969587685.06000018 1.463513255119324 71588.927737961945 6281.7400000000007 28.678108711778179 3.5000000000000004 343.14000000000004 20042.520000000004 61458.085000000006 4186.9850000000015 3.1635402441024785 20042.520000000004 16.500000000000004 -0.23213054239749906 3999.9600000000005 -0.98039722442626942
decision_type=8 2 2 10 2 8 2 2 2 2 8 8 2 2 2 2 2 2 2 8 2 2 10 2 2 10 2 10 10 2 2 2 10 2 10 2 2 2 2 10 2 2 8 2 2 2
left_child=1 10 4 5 -3 7 -7 -2 12 25 11 -1 28 14 26 17 -17 20 32 -14 -16 24 36 38 -21 27 -8 33 -6 40 -31 35 -11 -5 43 -28 -12 -10 39 -20 -24 -30 -18 44 45 -27
right_child=3 2 -4 9 8 6 13 -9 37 18 22 -13 19 -15 15 16 42 -19 23 21 -22 -23 29 -25 -26 34 31 -29 41 30 -32 -33 -34 -35 -36 -37 -38 -39 -40 -41 -42 -43 -44 -45 -46 -47
leaf_value=-0.0028234029305248937 -0.028481439477045293 -0.0048591867001641755 0.006853166972865931 0.063497615956050538 0.11168390023921572 -0.025338264287278287 -0.015902983219562551 0.0082289018719975005 0.064400952750355261 0.091658894638781893 -0.025470330671089027 0.15446767469880829 0.1875644125617599 -0.019464996139293561 0.0078733681401546192 0.31811814653240328 0.047288008992641503 0.22124739305269528 0.0080173695473119509 0.12807677835116155 0.16464490996030468 0.21418726684362532 0.015129502534572282 0.06631614901501906 0.081597193851000796 0 -0.014471249054218271 -0.028725754336515818 0.074988437429974533 0.15845712957365216 0 0.089907114014480788 0.046070652588114436 -0.0014807574325347722 0.0052407039226908102 0.0057065277506294972 0.0056006050576633843 0.0095900434379694276 -0.0080289254090354315 0.055765334422340565 0.11274792847194516 0.024476595695488771 -0.021072540976183888 0.063302481135163347 0 0.082220445629303029
leaf_weight=11.268992370169146 1100.3742672342923 27.493064134963788 115.22722306405194 8.3587098771240544 18.474224443722051 548.04655014013406 223.70034532091813 125.98540991422487 17.404616671090483 23.281353564118035 51.312183193513192 13.232709290168712 23.388173485524021 247.60065989452414 326.6560487455572 4.993880725232887 7.8280490567558418 3.0941111962893038 53.081950352585409 77.425528541905805 3.5432375503005451 8.8293279506615345 256.17690619366476 20.053281729808077 48.342083516763523 3.5955028061289358 85.710937879921403 63.291353277396411 18.708397807902656 3.778394235065206 2.9923747396096587 4.0418965254211789 71.047976046160329 48.860832106613088 72.521558728825767 258.30545021750731 43.314804497873411 13.569976370607035 43.048077340819873 13.406669838237574 2.0466235711355685 15.58419862372102 5.351598881476094 16.547631341149099 16.478037547785789 5.9047712134779431
leaf_count=5033 1898633 4774 106971 5177 1051 872107 291137 124553 3633 5149 35309 915 1684 281172 343138 1867 6173 2676 10365 11006 1229 408 235131 2915 16338 1474 103851 89119 4919 1846 2759 1655 10374 21834 25665 266289 21264 5434 14807 2904 571 7336 6662 5247 3772 2586
internal_value=-0.00135193 0.04168 0.0682746 -0.0110788 0.094399 -0.0156697 -0.00921957 -0.0246741 0.105871 0.0182521 0.014948 0.0803259 0.115075 -0.0016369 0.00309661 0.0165569 0.101594 0.0117872 0.0343756 0.128316 0.00968995 0.117691 0.0103706 0.0169899 0.110563 0.00273755 -0.00510036 -0.0112822 0.0745948 0.0180904 0.0884242 0.00171571 0.0577915 0.00724054 0.017807 0.000550854 -0.0107812 0.0418155 0.00755573 0.0183103 0.0160747 0.053323 0.0161797 0.0381976 0.0205041 0.0523187
internal_weight=4173.28 768.57 384.447 3404.71 269.22 2945.23 1718.87 1226.36 241.727 459.478 384.123 24.5017 210.752 1170.83 923.226 351.467 18.1735 333.293 223.919 157.985 330.199 134.597 359.621 129.59 125.768 235.558 571.759 120.511 52.7668 264.994 6.77077 348.058 94.3293 57.2195 115.048 344.016 94.627 30.9746 109.537 66.4886 258.224 34.2926 13.1796 42.5259 25.9783 9.50027
internal_count=4868912 466382 163554 4402530 56583 4201142 2177956 2023186 51809 201388 302828 5948 42742 1305849 1024677 361745 14702 347043 46514 29436 344367 27752 296880 30991 27344 154874 662932 116130 13306 240307 4605 371795 15523 27011 38744 370140 56573 9067 28076 13269 235702 12255 12835 13079 7832 4060
is_linear=0
shrinkage=0.0293034


Tree=15
num_leaves=47
num_cat=0
split_feature=16 14 16 5 14 0 16 19 21 14 27 0 13 16 26 11 15 27 2 10 13 11 31 33 33 15 16 15 14 14 22 16 0 14 30 14 16 13 11 16 5 11 0 10 16 16
split_gain=762.082 686.846 715.648 437.378 277.723 245.594 173.7 189.4 358.205 146.805 123.014 106.174 103.351 107.939 141.879 94.9805 108.941 79.9869 68.3158 73.1796 65.9458 68.1847 63.2039 99.9764 166.062 62.9957 260.921 90.7875 56.4954 52.9968 70.7965 51.0793 50.2694 44.2139 41.6833 38.1697 185.195 187.894 35.8191 55.636 37.6304 34.7269 43.223 125.878 86.8231 34.1492
threshold=8.5000000000000018 14.500000000000002 57.500000000000007 inf 2.5000000000000004 2384.1200000000003 21.500000000000004 -2.7228035926818843 2.2319436073303227 11.500000000000002 -0.96757355332374562 124.88500000000001 2.5000000000000004 82.500000000000014 -0.29529689252376551 624835.44438596501 7.1312190456064586e-07 1.463513255119324 1.0000000180025095e-35 3.5000000000000004 3.5000000000000004 41937.345223435957 -1.9427255392074583 -0.69446313381195057 -0.82984372973442067 2.0520330033525478e-06 1.5000000000000002 3.5005408862248276e-07 3.5000000000000004 6.5000000000000009 -1.166155159473419 6.5000000000000009 0.77987000000000017 19.500000000000004 1.5627381205558779 17.500000000000004 143.50000000000003 4.5000000000000009 563068.55614405719 2.5000000000000004 -6050.3849999999993 2669.7678409090913 6690.4150000000009 8.5000000000000018 35.500000000000007 4.5000000000000009
decision_type=2 2 2 8 2 2 2 2 2 2 2 2 2 2 2 10 2 2 2 8 2 8 2 2 2 2 2 2 2 2 2 2 2 2 2 2 2 2 10 2 10 8 2 10 2 2
left_child=3 5 10 4 -1 -2 7 8 -7 17 33 32 -4 14 -14 16 -12 29 -13 31 41 22 23 24 -22 26 27 -5 -21 34 -31 38 -6 -3 -9 -15 37 -37 39 -20 -40 42 -8 -44 -45 -30
right_child=1 2 12 25 11 6 20 9 -10 -11 15 18 13 35 -16 -17 -18 -19 19 28 21 -23 -24 -25 -26 -27 -28 -29 45 30 -32 -33 -34 -35 -36 36 -38 -39 40 -41 -42 -43 43 44 -46 -47
leaf_value=-0.020276405489745727 -0.024760156759536255 0 -0.026538919150482069 0.045522465393818108 0.069951574611005929 0 -0.016380532443174632 -0.0078924076251528068 0.41093307653951094 0.099962971047354354 0.15894406364799504 0.0039931539158941627 0.23033187004211927 -0.016035837399840068 -0.0082917542693109192 0.21415255709912251 0.053163396510522549 0.165434010574083 0.015110082510178688 0.026354123200991793 0.03348034841914755 -0.013598148782618615 0.0067381543761825795 0 0.30521283596246707 -0.025470655982176606 -0.017574617237897692 0.17153747887092685 0.093335495672555932 0.15811192142202177 0.015559826065038553 0.0012364953523345222 -0.022902542066847137 0.083390242219840524 0.15359488923982764 0.31206385632555766 0.010057503934092236 0 0.044857181712091729 0.0422743636829081 0.089811685997479032 -0.019917675961084368 -0.014426841837788746 0.29410397566803886 0.062024703390109688 0.053802370675177215
leaf_weight=79.0202279885998 1268.1412656614557 9.8037040186463873 67.995910254481714 16.237770545762036 5.7483014079043633 5.095585747738367 34.79322253796272 179.47416294628056 2.9489283485454507 14.571231423702555 18.919942059728783 44.522083746793214 4.4250423632911406 42.972613993799314 3.4843018304673015 10.846848969697019 17.959550640371162 2.6231835215003221 93.140479390101973 30.13810440787347 5.8182757156318985 142.36810364993289 95.389629659301136 9.2525800599833001 3.2631598214502464 140.76259511406533 101.01869019161677 8.0920607472071406 48.73208278301172 3.1988496022531754 84.319285355042666 33.68973509920761 33.890678753959946 12.192831790307535 1.3594158618943755 3.5549454409047021 471.80631580529734 3.6004362777457573 75.3238255684264 265.75642780557973 24.421001493814401 571.9849453237839 14.436922159395182 2.1260566331911814 6.2514015351771377 43.560299166478217
leaf_count=110345 2008784 4956 91722 16221 4811 4396 47046 206154 1516 1629 2258 25785 1667 58773 2967 1101 4370 928 35862 7109 6176 185571 118311 11043 748 214683 148721 4130 5607 2451 59944 15340 41917 939 1598 1747 443056 3563 9542 81845 4116 823773 16687 2020 8297 18687
internal_value=-0.00132924 -0.00860121 0.0177144 0.0203246 0.0314332 -0.0157972 -0.00612125 0.0133391 0.153907 0.00922372 0.106604 0.0373427 0.00727361 0.0116962 0.119641 0.133544 0.108632 0.00418097 0.0401552 0.0427022 -0.012622 0 0.016833 0.0669424 0.136009 -0.0119838 0.00280924 0.0892563 0.0635039 0.0024394 0.0212769 0.0374395 -0.00832129 0.0461397 -0.00643321 0.00997557 0.0124016 0.160765 0.0400025 0.0353479 0.0563073 -0.0177217 0.00331571 0.0352889 0.126226 0.0751561
internal_weight=4159.03 3114.98 667.562 1044.05 777.943 2447.42 1179.27 293.591 8.04451 285.546 69.7229 698.923 597.84 529.844 7.90934 47.7263 36.8795 270.975 659.284 614.762 885.684 256.092 113.724 18.334 9.08144 266.111 125.349 24.3298 122.43 268.352 87.5181 492.331 39.639 21.9965 180.834 521.934 478.962 7.15538 458.642 358.897 99.7448 629.593 57.6076 22.8144 8.37746 92.2924
internal_count=4868912 4124191 617119 744721 360966 3507072 1498288 278616 5912 272704 13624 250621 603495 511773 4634 7729 6628 271075 203893 178108 1219672 321849 136278 17967 6924 383755 169072 20351 31403 270147 62395 146705 46728 5895 207752 507139 448366 5310 131365 117707 13658 897823 74050 27004 10317 24294
is_linear=0
shrinkage=0.0293034


Tree=16
num_leaves=47
num_cat=0
split_feature=6 0 3 16 12 14 14 16 2 16 10 12 3 14 16 8 16 12 3 16 16 12 0 12 16 25 8 27 17 33 16 17 27 17 10 16 10 0 0 14 2 24 0 0 0 27
split_gain=987.781 628.553 315.42 218.874 299.757 177.678 158.878 291.486 147.507 128.854 104.478 107.659 134.642 96.6167 154.255 69.915 64.2532 95.1846 63.1033 65.7082 58.6013 134.57 88.8627 58.4176 116.606 135.593 70.498 66.3542 58.3217 49.2638 46.8307 45.7968 43.0618 40.5217 35.8413 28.9532 28.0491 26.458 34.0385 26.0824 59.2429 29.3384 25.2178 23.7702 22.747 24.5782
threshold=12.500000000000002 971.0100000000001 4.5000000000000009 14.500000000000002 1.5000000000000002 16.500000000000004 14.500000000000002 57.500000000000007 1.0000000180025095e-35 36.500000000000007 3.5000000000000004 3.5000000000000004 3.5000000000000004 16.500000000000004 57.500000000000007 3.5000000000000004 5.5000000000000009 3.5000000000000004 2.5000000000000004 2.5000000000000004 8.5000000000000018 1.5000000000000002 124.88500000000001 2.5000000000000004 23.500000000000004 2.7267990112304692 1.5000000000000002 1.463513255119324 77100.895000000004 -1.016755938529968 44.500000000000007 370.72000000000008 -0.19497191905975339 125357.40500000001 12.500000000000002 40.500000000000007 15.500000000000002 779.87500000000011 332.00500000000005 5.5000000000000009 1.5000000000000002 -1.7507156729698179 31192.350000000002 6172.9850000000006 4605.9500000000007 -0.58192577958106984
decision_type=8 2 2 2 2 2 2 2 2 2 10 2 2 2 2 10 2 2 2 2 2 2 2 2 2 2 10 2 2 2 2 2 2 2 10 2 8 2 2 2 2 2 2 2 2 2
left_child=13 5 3 4 18 20 23 32 -6 15 16 29 -13 -1 -15 36 33 -18 19 -3 21 -2 31 27 25 26 -25 -5 -24 -12 -7 -23 -8 -10 -26 -36 39 38 -30 42 -41 -42 43 -4 -16 -46
right_child=1 2 9 6 8 30 7 -9 10 -11 11 12 -14 14 44 -17 17 -19 -20 -21 -22 22 28 24 34 -27 -28 -29 37 -31 -32 -33 -34 -35 35 -37 -38 -39 -40 40 41 -43 -44 -45 45 -47
leaf_value=-0.025746363719640744 -0.024722249732037779 0.095759947681149774 0.03731482440185082 -0.026452069660380679 -0.010286090407628574 0.1262327003610014 0.06035007738073523 0.0093005191051483901 0.029674465557405588 0.013922913774182749 0.11153908558463431 0.21349225807181155 0.050114029112085491 0.13607302638448446 -0.024981318580155287 0.13382216785350604 -0.0071078128866013312 0.066367795926466813 -0.019968564811015714 -0.022986239522954092 -0.024529464942621152 0.051106162114712861 0.021478623415184129 -0.0040429778230905962 -0.019529431016743492 0.18014839837483995 0.039493801667171695 0.11907142520893339 0.028489529046451002 0.021086534735369651 0.009519095181251545 -0.023874120998968774 0.12351570741615051 0.048955386054126013 0.012318128917548774 -0.0075469256370709233 0.10481489984381118 0.01120483307554737 0.14287335046745234 0 0.0090626265019548933 0.090223245306701866 0.014216434222290084 0.077164653948226761 0.057209739688138798 -0.012539062869058547
leaf_weight=1131.1473375062342 136.86908242548816 8.7646408039145154 48.25857408560114 117.06074460590025 57.592795657576062 3.0686339578242032 25.325043419783469 289.56359113060171 216.30927382718073 71.989760278200265 7.3650705257314284 9.6861155089573003 9.419259755697567 7.7693873352836809 23.665773851447739 11.544385483372023 62.865187280462123 19.654535875364672 129.22751843702281 6.482662087713833 503.80369700421579 8.5515869142836873 28.484484900778625 60.573940780188423 143.70617141976254 4.6743784716236396 63.882606637431309 2.6520966290845527 4.2775543539901291 23.982473895186558 209.27530725568067 34.679753611795604 20.199024059693329 196.06371968053281 88.71295353397727 213.0750913451775 11.216204132477285 3.9349089738097964 9.7627120594261196 9.2529543792479654 5.5498301517800419 43.096712808881421 25.589194431900978 23.198573650442995 7.9514630232588388 7.8652833141386491
leaf_count=2000289 226012 2387 15392 138606 42751 1523 2632 262547 68204 68067 5292 2135 2439 2196 35621 2507 25807 4339 180546 4076 784469 7727 23821 43429 161192 2829 40321 630 1993 18458 198155 48717 1360 34279 97262 252474 2312 1230 3611 3083 1786 14157 6069 5776 9998 10406
internal_value=-0.00130707 0.00769054 0.0168952 0.0125276 0.0246082 -0.0120497 0.00371363 0.0203078 0.0337129 0.0477973 0.0384406 0.0792822 0.135264 -0.024016 0.0164706 0.0612712 0.0341874 0.00985802 -0.0130827 0.0423783 -0.0189321 -0.00629019 0.0213448 -0.00423113 -0.000273631 0.0241644 0.0179494 -0.0228581 0.0496189 0.0437505 0.0114144 -0.00801965 0.0893493 0.0389488 -0.00745642 -0.00156105 0.0559639 0.0917504 0.111176 0.0521419 0.0689442 0.0818724 0.0416615 0.0508712 -0.00594935 0.0197346
internal_weight=4147.64 2969.24 2026.54 1776.84 747.413 942.708 1029.43 335.088 602.938 249.696 545.346 50.4529 19.1054 1178.4 47.2519 177.706 494.893 82.5197 144.475 15.2473 730.364 226.56 89.691 694.338 574.625 129.131 124.457 119.713 46.4597 31.3475 212.344 43.2313 45.5241 412.373 445.494 301.788 166.162 17.9752 14.0403 154.946 57.8995 48.6465 97.0463 71.4571 39.4825 15.8167
internal_count=4868912 2810402 1513144 1393995 390713 1297258 1003282 266539 203704 119149 160953 28324 4574 2058510 58221 51082 132629 30146 187009 6463 1097580 313111 87099 736743 597507 86579 83750 139236 30655 23750 199678 56444 3992 102483 510928 349736 48575 6834 5604 46263 19026 15943 27237 21168 56025 20404
is_linear=0
shrinkage=0.0293034


Tree=17
num_leaves=47
num_cat=0
split_feature=6 1 3 16 18 14 16 14 16 14 16 3 10 18 1 3 16 3 16 8 16 15 11 1 17 25 22 29 1 11 15 15 28 29 31 16 3 3 10 1 16 6 14 20 1 1
split_gain=948.069 586.261 278.435 198.633 172.995 147.706 258.252 133.093 109.629 93.833 132.023 90.5657 66.8062 68.2769 116.461 75.3294 60.9133 85.2912 66.6825 60.4736 59.8218 58.1032 46.6711 114.117 130.479 69.8164 33.9585 53.937 33.4918 30.2455 29.3728 28.1619 52.6662 65.2814 27.6444 27.5744 95.0248 73.3096 25.9935 33.8809 25.4788 25.0701 24.8957 23.7263 34.8306 21.6107
threshold=12.500000000000002 6.8793660922616775 4.5000000000000009 14.500000000000002 143348.21014705885 14.500000000000002 57.500000000000007 2.5000000000000004 36.500000000000007 16.500000000000004 57.500000000000007 2.5000000000000004 3.5000000000000004 6399.1911360544227 11.187492787371832 2.5000000000000004 5.5000000000000009 3.5000000000000004 2.5000000000000004 3.5000000000000004 4.5000000000000009 1.2252080577295804e-06 45425.90465909092 9.051539814864487 36130.020000000011 2.4974267482757573 2.5547671318054204 -1.3424732089042661 9.9056611876401153 10.385000000000003 1.9455064156994552e-06 1.5031642123440833e-06 -0.51875656843185414 -0.88651785254478443 -1.2662168741226194 8.5000000000000018 2.5000000000000004 4.5000000000000009 6.5000000000000009 4.9102254637807645 2.5000000000000004 27.500000000000004 22.500000000000004 -0.33472721278667444 6.1342219982280559 8.4353213103549276
decision_type=8 2 2 2 2 2 2 2 2 2 2 2 10 2 2 2 2 2 2 10 2 2 8 2 2 2 2 2 2 10 2 2 2 2 2 2 2 2 8 2 2 10 2 2 2 2
left_child=9 4 3 7 35 22 21 11 19 -1 -11 -3 16 -14 15 -15 17 18 -9 29 -19 -7 23 -5 -25 -26 28 -28 -24 -4 -6 32 33 -8 -31 36 43 -38 39 -32 -36 -33 -37 44 -2 -12
right_child=1 2 8 5 30 6 31 12 -10 10 45 -13 13 14 -16 -17 -18 20 -20 -21 -22 -23 26 24 25 -27 27 -29 -30 34 38 41 -34 -35 40 42 37 -39 -40 -41 -42 -43 -44 -45 -46 -47
leaf_value=-0.02565228606071196 0.14493484063601864 0.073737448133136846 0.094223358131787865 -0.0099586983855647244 -0.011684874869628603 0.1164547425184972 0.17665466807925059 0.0075808288105305233 0.013326714029566545 0.120864341529571 -0.024871059781230387 -0.018630418861514775 0 0.14507717278079696 -0.0034463980159456539 0.056608114062442705 0.0034500750313537984 0.063975551493975699 0.032461779355526674 0.12216202922794904 0.0033776005942882871 0.047197017845504695 -0.0031188369478849856 0.27443846026264995 0.014352363635221478 0.10341142533659782 0.14982100171881185 -0.0028238435143108694 -0.022876536150621719 0.065641123635322193 -0.0081421921093775221 -0.027085058060355341 0 0.034470222856330474 0.0050401581515511582 -0.024953147046757256 -0.019284765068348638 0.072544973339869229 0.010463272920416595 0.091753175424787156 0.044626917543707095 0.0080280014956230494 0.012262968474955862 0 0.0088329965794357139 0.018615282589096664
leaf_weight=1102.4515515841777 5.1206352668814343 10.079537249985149 15.220706457854247 228.84156857960625 48.740802361979149 23.855508141044993 4.0441009534988579 158.18963825691026 72.991218119335826 8.4793067650170979 23.082749117456842 86.14861651515821 15.229775537562089 17.459131853131112 11.732443747343494 20.239160002907738 99.831699559523258 83.216994187969249 242.4681010672939 12.264329231460577 18.695138449897058 23.818978504568804 140.78387878177455 1.7801026456290845 134.86648178199539 8.2521231287391839 2.8177283997647464 4.979814375517889 169.14662662643241 53.677452451782301 3.4392264771158789 18.389693740347866 18.916973639104981 12.871471195714546 19.768947779317386 453.12994656228693 184.9825605955557 7.6011184295639387 199.79164516844321 7.8344567871536128 85.919112245435826 238.02929925452918 14.359517447999677 3.0118296281434587 3.4389006798737682 16.185241966682952
leaf_count=2000289 2545 3765 2646 253249 65727 1560 2091 98774 68067 2196 35621 120422 10722 8711 7905 9811 41573 21644 61926 2507 5460 2432 149886 981 124768 6017 1407 5134 195305 13006 4060 13548 13593 7669 3200 723861 287902 2749 188843 3255 29723 225646 14118 2245 1949 20404
internal_value=-0.00128148 0.00741448 0.0161662 0.0120278 -0.0118421 0.00359057 0.0194295 0.0233706 0.0445798 -0.023895 0.0157529 -0.00849547 0.0280337 0.0568764 0.0736046 0.0987554 0.0248644 0.0290303 0.0227485 0.056552 0.0532928 0.0827808 -0.004132 0.0027912 0.0232321 0.0197969 -0.0124147 0.0466862 -0.0140443 0.0516892 0.0083435 0.0089437 0.0335167 0.0710837 0.0473491 -0.0197161 -0.0103414 -0.0154306 0.0131779 0.0573631 0.0376403 0.00533742 -0.0237155 0.0705347 0.0954223 -0.00582232
internal_weight=4136.18 2985.98 2054.53 1794.68 931.451 1031.39 339.926 763.29 259.842 1150.2 47.7473 96.2282 667.062 64.6605 49.4307 37.6983 602.402 502.57 400.658 186.851 101.912 47.6745 691.468 373.74 144.899 143.119 317.728 7.79754 309.931 174.586 259.806 292.252 35.8325 16.9156 159.366 671.645 204.155 192.584 211.065 11.2737 105.688 256.419 467.489 11.5714 8.55954 39.268
internal_count=4868912 2810402 1513148 1393999 1297254 1003286 266539 390713 119149 2058510 58221 124187 266526 37149 26427 18522 229377 187804 160700 51082 27104 3992 736747 385015 131766 130785 351732 6541 345191 48575 261885 262547 23353 9760 45929 1035369 297390 290651 196158 7315 32923 239194 737979 6739 4494 56025
is_linear=0
shrinkage=0.0293034


Tree=18
num_leaves=47
num_cat=0
split_feature=4 6 2 6 16 1 16 1 11 1 2 4 16 2 29 13 13 32 1 13 8 2 27 6 32 22 13 4 13 16 32 22 8 4 26 22 13 19 27 22 19 25 1 11 26 1
split_gain=1725.36 635.068 587.94 449.824 283.167 258.605 188.981 165.314 105.454 107.416 100.807 93.3193 93.886 90.21 85.4066 76.5039 59.3834 131.839 58.3883 66.4324 52.3264 55.8064 48.6 45.4509 44.3507 58.7454 43.6777 38.4758 48.1719 65.2439 37.2954 36.3613 31.5198 29.4776 29.3399 31.6188 32.409 24.0626 23.76 21.3537 31.0871 22.1383 20.5051 18.3805 18.2549 16.2646
threshold=1.0000000180025095e-35 1609.0000000000002 1.0000000180025095e-35 8.5000000000000018 4.5000000000000009 6.395453566297955 24.500000000000004 6.9421470433969583 18541.572809523812 8.5432789794164972 19.500000000000004 1770.0000000000002 33.500000000000007 1.0000000180025095e-35 1.8194783926010134 3.5000000000000004 5.5000000000000009 1.0000000180025095e-35 6.5316644899740703 3.5000000000000004 1.5000000000000002 6.5000000000000009 1.463513255119324 191.50000000000003 -2.8362195491790767 -0.65589067339897145 5.5000000000000009 160410.00000000003 1.0000000180025095e-35 4.5000000000000009 -2.0484282970428462 2.2927908897399907 3.5000000000000004 670320.00000000012 0.45138169825077062 -0.40816733241081232 2.5000000000000004 -1.7747427821159361 1.463513255119324 1.7415932416915896 -0.66355794668197621 0.64010742306709301 5.3157397119381082 3183.8555555555563 -0.10463638976216315 8.6177324032247409
decision_type=8 8 2 8 2 2 2 2 10 2 2 10 2 2 2 2 2 2 2 2 8 2 2 8 2 2 2 10 2 2 2 2 10 10 2 2 2 2 2 2 2 2 2 10 2 2
left_child=1 -1 -3 11 -4 23 8 37 13 34 15 -2 18 -7 24 20 22 -18 -13 43 -9 -22 -8 -5 25 -11 30 -25 -29 -30 -17 -26 33 38 39 -36 -37 42 -15 41 -41 -10 -6 -20 -34 -14
right_child=3 2 4 5 7 6 16 10 9 14 -12 12 45 32 -16 26 17 -19 19 -21 21 -23 -24 27 31 -27 -28 28 29 -31 -32 -33 44 -35 35 36 -38 -39 -40 40 -42 -43 -44 -45 -46 -47
leaf_value=0.010816634391744647 -0.028314805151871621 -0.015379102687897441 0.12801095168550411 0.01554951791319889 0 -0.022466135745383978 -0.015309265003597963 0.012865120994541752 0 0.13229067031457875 0.021985685156949174 0 -0.02209038067343427 0.0044713437704138109 0.12780122317347936 0.18564404680203436 0.0025681282704881647 0.17618074931228467 0 0.33865423694911567 0.036781602314003042 0.086651930506755057 0.059011075573757801 -0.024114371604251419 0 0.019723139447246518 0.070572332631835058 -0.0257316548289276 0.072044632713171256 -0.013997004626002381 0.108754216343383 0.049776224413762955 0 0.036317846537719987 0.10178693212277733 0.067180496183109228 0.0172314342873327 -0.0023733519277602572 0.077411730887262928 0.12118563884629537 0.008322275594138253 0.035701276740686648 0.15117268651571006 0.13177957646925062 0.099190877224043808 0.019630998272715541
